label,d0,d1,d2,d3,d4,d5,d6,d7,d8,d9,d10,d11,d12,d13,d14,d15,d16,d17,d18,d19,d20,d21,d22,d23,d24,d25,d26,d27,d28,d29,d30,d31,d32,d33,d34,d35,d36,d37,d38,d39,d40,d41,d42,d43,d44,d45,d46,d47,d48,d49,d50,d51,d52,d53,d54,d55,d56,d57,d58,d59,d60,d61,d62,d63
TC0000,0.366647869348526,-1.005772352218628,-0.055832769721746445,0.43722468614578247,1.4960380792617798,-0.26744669675827026,0.17343193292617798,0.1894710510969162,-0.10978038609027863,1.039482831954956,0.34494027495384216,0.20162074267864227,1.0896152257919312,-0.3474326431751251,0.8551926612854004,-0.27040067315101624,0.3288744390010834,0.7466155886650085,-1.4828492403030396,1.0900332927703857,-0.4293147325515747,-0.33121004700660706,-0.8621642589569092,-1.5157076120376587,0.4463239908218384,0.5115624666213989,0.23864981532096863,1.1006520986557007,-0.27320459485054016,0.6144444942474365,-0.8135970830917358,0.9246509671211243,-0.25156256556510925,1.437332272529602,1.2404704093933105,0.4137337803840637,0.03526724502444267,1.580011248588562,-0.8280043005943298,-1.7554855346679688,0.2675503194332123,-0.5857731103897095,0.9281615614891052,0.7756312489509583,-0.9272735714912415,0.2811746597290039,0.34834903478622437,-0.8372993469238281,0.8614881634712219,0.07899380475282669,-0.5447539687156677,1.0463597774505615,0.28732356429100037,0.7964134812355042,0.011934762820601463,-0.42824476957321167,0.7053607106208801,-0.7543969750404358,0.16538015007972717,-0.06498482078313828,-1.0123097896575928,1.9540705680847168,2.2775635719299316,-0.8602131605148315
TC0001,0.7855508923530579,0.6405746936798096,-0.8673810362815857,-0.05722406879067421,0.9729486107826233,-0.7120036482810974,0.6117717027664185,0.12544050812721252,-0.40267378091812134,0.9657831192016602,-0.8991840481758118,-0.3443473279476166,0.22895067930221558,0.15285435318946838,0.5432277321815491,-0.524276077747345,-0.18442878127098083,0.21329069137573242,-0.1254006177186966,1.0220049619674683,0.41308262944221497,-0.19252166152000427,-0.5540649890899658,-0.3781753182411194,0.318208247423172,0.31221699714660645,0.4908488988876343,0.960410475730896,0.22333087027072906,-0.9167484045028687,-1.3561064004898071,0.2789307236671448,-0.649115264415741,1.4392492771148682,0.3214980363845825,-0.35483434796333313,-0.3658049404621124,0.4920939803123474,-0.49823611974716187,-1.2276923656463623,1.0242891311645508,-0.5721392035484314,-0.8067246675491333,1.4900285005569458,0.13969860970973969,-0.2074727863073349,-0.5438932180404663,-1.0602813959121704,0.22510704398155212,0.6842644810676575,0.26646628975868225,-0.26371312141418457,0.7039039134979248,1.3371225595474243,0.40771007537841797,-0.8196631073951721,-0.37835338711738586,-0.5107940435409546,-0.4476274251937866,0.7653930187225342,0.5395664572715759,1.8234448432922363,2.2122533321380615,-0.8765654563903809
TC0002,0.7386418581008911,0.7916610240936279,-1.0008890628814697,0.04940224438905716,0.18995504081249237,-0.7964991331100464,0.6825046539306641,0.04198950529098511,-0.5959517955780029,1.0347577333450317,-1.0623093843460083,-0.5580675005912781,0.20448248088359833,-0.010713716968894005,0.5991075038909912,-0.2591063976287842,-0.019108029082417488,-0.3351167142391205,0.1640697866678238,1.1498831510543823,0.4835161864757538,-0.008072346448898315,-0.49345314502716064,-0.8045278191566467,0.6978172063827515,0.24694013595581055,0.1294037401676178,0.8401994109153748,0.793896496295929,-0.763797402381897,-2.532890558242798,0.5383729934692383,-0.6249300241470337,1.618237853050232,0.2090802788734436,-0.4506027400493622,-0.2974476218223572,0.9861835837364197,-1.0491082668304443,-1.1254545450210571,1.1077483892440796,0.1840389221906662,-0.658857524394989,1.3696377277374268,0.45091408491134644,-0.3000549376010895,-0.9778582453727722,-1.2261582612991333,0.011557607911527157,0.8458611965179443,0.39274242520332336,0.04199296608567238,0.7745216488838196,1.868463397026062,0.816097617149353,-1.0277636051177979,-0.5068402290344238,-0.7172392010688782,-0.43043580651283264,0.9407873749732971,0.8546926379203796,1.9002764225006104,2.847486734390259,-1.2862106561660767
TC0003,0.9334762096405029,0.616992175579071,-1.0215505361557007,0.0380428209900856,0.7995641827583313,0.03944599628448486,0.4817158579826355,-0.38495951890945435,-0.5414353013038635,1.0440335273742676,-1.0193912982940674,-0.36536070704460144,-0.16311758756637573,0.0864056646823883,0.6141951084136963,-0.5937813520431519,-0.1530439406633377,-0.11966956406831741,-0.00016326646436937153,1.1130914688110352,0.4946911036968231,0.15060725808143616,-0.5543501377105713,-0.7413346171379089,0.07692986726760864,0.5309219360351562,0.2678568363189697,1.1079256534576416,0.7857077717781067,-1.001965880393982,-2.142461061477661,0.40447214245796204,-0.7007011771202087,1.6004128456115723,0.07648778706789017,-0.6070024967193604,-0.21873006224632263,0.7689657211303711,-1.1195634603500366,-0.7221958637237549,0.8363109230995178,0.0015030878130346537,-0.6706123948097229,1.1529563665390015,-0.038261860609054565,-0.12869344651699066,-1.0392556190490723,-1.2893236875534058,0.023534312844276428,0.4845113158226013,0.3106013834476471,-0.04730287566781044,0.5052750706672668,1.7717273235321045,0.9035556316375732,-0.8431707620620728,-0.20027287304401398,-0.7221618294715881,-0.8460536599159241,1.198177456855774,0.4328825771808624,1.8747704029083252,2.3977465629577637,-1.064820408821106
TC0004,-0.09002532809972763,0.8350756168365479,0.0380810871720314,0.509763240814209,0.6002771258354187,-0.5770372748374939,-1.0698440074920654,-0.07641078531742096,1.3818671703338623,0.9693561792373657,-0.18688131868839264,-1.1133288145065308,0.4804135262966156,0.36065083742141724,-1.7282794713974,0.09014175087213516,-1.365004062652588,-1.0768163204193115,-0.65048748254776,0.5449827313423157,0.0026743682101368904,-1.6486124992370605,-0.5942893624305725,1.047776222229004,-0.03929430618882179,-1.7952624559402466,0.5033453702926636,-0.11766534298658371,1.178297758102417,-0.7378250360488892,-3.4801878929138184,1.6899558305740356,-0.9926338195800781,-1.0055071115493774,-0.224831223487854,-0.5771400332450867,-0.6529853343963623,-1.0474804639816284,-0.8887939453125,-1.169256567955017,0.07050403207540512,0.6800411343574524,0.7775625586509705,-0.6061730980873108,-1.6251715421676636,-0.2500443458557129,-0.20531819760799408,-0.7643890380859375,0.8329339027404785,1.6906843185424805,-1.0515373945236206,0.4985397458076477,0.6177884936332703,-0.053571123629808426,1.2666743993759155,-0.8814991116523743,0.6234596967697144,-0.5296079516410828,1.0978869199752808,0.9729922413825989,-1.055690884590149,0.5487948060035706,1.589058756828308,-1.526206612586975
TC0005,0.7541149258613586,-0.012165225110948086,-1.6522228717803955,-0.06928292661905289,2.40004825592041,-0.6798091530799866,-1.374541997909546,-0.30313581228256226,0.8269599080085754,-0.24038191139698029,-0.005874792579561472,-1.3826924562454224,0.42667514085769653,0.7964339256286621,-0.08792611956596375,2.172497510910034,-0.4804818034172058,-0.12094970792531967,-0.9756892919540405,1.2438124418258667,0.5514131188392639,-1.051731824874878,-1.3806771039962769,0.4785466194152832,-1.2270288467407227,-1.0289881229400635,0.1487138271331787,-0.032092783600091934,1.288106918334961,0.1919676810503006,-2.160858392715454,0.8739585280418396,-1.111390233039856,-0.6413837671279907,-0.48481258749961853,-0.2645726799964905,1.3009297847747803,0.47115957736968994,-0.2680552899837494,-0.5389394164085388,0.07385005056858063,1.0672181844711304,-0.35346078872680664,0.1999678760766983,-0.9390102028846741,0.22071681916713715,0.5557444095611572,-0.6144009232521057,1.0494205951690674,0.5351197123527527,0.2135036438703537,1.5707975625991821,-0.6932004690170288,0.2187938094139099,1.3077694177627563,0.7239426374435425,-0.058131828904151917,-1.0179309844970703,0.04738355800509453,0.504356324672699,-0.5748502016067505,0.5027061104774475,2.3609061241149902,-1.4692940711975098
TC0006,-0.9956935048103333,1.0112625360488892,-1.157688021659851,0.2296724170446396,0.8568120002746582,-0.8879298567771912,-0.05703148990869522,0.16092246770858765,1.6880710124969482,0.36993011832237244,0.31312063336372375,-0.6717444062232971,-0.4268311560153961,-0.27224844694137573,-1.2413829565048218,0.6294038891792297,-1.0261205434799194,-0.7696287631988525,0.8625044822692871,1.3148791790008545,0.3534514307975769,-0.305227130651474,-2.541445732116699,0.266279935836792,1.348705768585205,-1.0454241037368774,-1.1281826496124268,-0.3985329568386078,-0.08864068239927292,0.13184203207492828,-1.272560954093933,-0.1818811148405075,-0.18187174201011658,1.044602632522583,1.115699052810669,-0.04669090360403061,0.15286023914813995,0.5612238645553589,-1.6220951080322266,-0.5321416854858398,-1.1821281909942627,-0.02854142151772976,-0.9826681613922119,0.7317947745323181,-1.5140981674194336,-0.49880602955818176,-0.5033158659934998,-0.5845083594322205,-0.14051298797130585,1.3485175371170044,1.132082462310791,-1.1923389434814453,-0.4274141192436218,0.8278980255126953,0.619641125202179,-0.2856144309043884,-0.5623313784599304,-0.13460443913936615,0.8540542721748352,1.5400736331939697,-0.044560641050338745,1.3875627517700195,1.7115821838378906,-1.7302254438400269
TC0007,-0.21619009971618652,0.9994941353797913,-0.08878277987241745,0.30727431178092957,-1.1998623609542847,-0.40498214960098267,1.2616699934005737,-0.29349789023399353,0.5625129342079163,-0.01073226984590292,-0.6997758746147156,-0.0768866315484047,0.2275928407907486,-0.9994317889213562,0.42972269654273987,0.1664937436580658,-0.874021589756012,-1.8779815435409546,0.0420428141951561,-0.4096876084804535,0.2227536290884018,-0.24878421425819397,1.1139440536499023,-0.6955606341362,0.589603066444397,-0.3789941966533661,-0.8793047666549683,-0.25270259380340576,-0.5122096538543701,0.6254660487174988,-1.0754899978637695,-0.47016555070877075,-0.17254199087619781,-0.14322969317436218,-0.7564376592636108,-1.0332012176513672,-0.6386731863021851,0.19884124398231506,-1.2954881191253662,-0.2711390256881714,0.910105288028717,0.5725229382514954,-0.5167945623397827,1.6994678974151611,-1.8981727361679077,-0.6843979954719543,-0.8675942420959473,-1.6710762977600098,-0.3618260622024536,-0.47626808285713196,-0.9236038327217102,0.036662086844444275,-0.06523455679416656,1.1689778566360474,0.34232616424560547,0.053110260516405106,0.7014280557632446,0.18723885715007782,1.1506823301315308,0.7327554821968079,-0.31251823902130127,0.34401169419288635,0.7687944769859314,-1.8610905408859253
TC0008,-0.15837852656841278,0.9620518088340759,0.030643843114376068,0.2720031142234802,-1.050167441368103,-0.024275342002511024,1.604711651802063,0.05537419766187668,0.7554569244384766,-0.22076719999313354,-0.5026806592941284,-0.2739514410495758,-0.3809845447540283,-1.2255473136901855,0.5725997090339661,0.6287993788719177,-0.43527859449386597,-1.8542824983596802,0.029450686648488045,-0.48087820410728455,0.18788592517375946,0.1616096794605255,1.0748735666275024,-0.8209407329559326,0.5117179751396179,-0.4357050359249115,-0.8688296675682068,0.08731125295162201,-0.3074759542942047,0.6819498538970947,-1.1119980812072754,-0.6566042304039001,0.0006666754488833249,-0.3124203383922577,-0.42277243733406067,-0.9047532677650452,-0.7067381739616394,0.002135323826223612,-1.5629277229309082,-0.2532515227794647,0.943062424659729,0.16290214657783508,-0.7453879117965698,1.9143620729446411,-1.487059473991394,-0.6824572086334229,-1.0440711975097656,-1.4497355222702026,-0.40354040265083313,-0.34251001477241516,-0.7076648473739624,-0.04767236486077309,-0.06901556253433228,1.2001402378082275,0.6230773329734802,-0.005805500317364931,0.7311567664146423,-0.07934615761041641,1.0714374780654907,0.6634785532951355,-0.3961409330368042,0.3042225241661072,0.8169693946838379,-1.8701355457305908
TC0009,-0.43115943670272827,0.4224068820476532,0.9460354447364807,-1.9246995449066162,0.21612253785133362,-0.08646395802497864,-0.03702038154006004,0.6948993802070618,-0.8277828097343445,1.8613100051879883,-0.9349268078804016,-0.06822177767753601,0.19307959079742432,1.0971990823745728,1.4516468048095703,-0.750173032283783,0.5134003162384033,-0.4782935380935669,-1.6631357669830322,-1.0381147861480713,-0.3183753192424774,0.7021282911300659,-1.312997817993164,-0.5614307522773743,0.17161807417869568,0.13221034407615662,2.2177906036376953,1.7841837406158447,0.17757879197597504,-0.7516933679580688,-1.3848587274551392,0.2492709457874298,0.34122899174690247,-0.5612720847129822,0.22015400230884552,-0.35212165117263794,-0.0013098528143018484,0.2112540602684021,-1.1459498405456543,-0.10221728682518005,-0.6463873386383057,0.7308515310287476,-0.3071017265319824,1.4770621061325073,-0.4956292510032654,-0.23216687142848969,-0.8739398121833801,-0.3475199341773987,-0.7188184857368469,1.3042125701904297,0.8324361443519592,0.779188334941864,2.264267921447754,0.9771384596824646,-0.2765972912311554,-1.6802301406860352,0.7453866004943848,-0.5024943351745605,0.11978884786367416,0.9859630465507507,-0.5129287838935852,-0.3085867464542389,-0.6875115036964417,-1.3017847537994385
TC0010,0.6963863372802734,1.0619479417800903,-0.947123110294342,-0.16993916034698486,0.634651780128479,-0.08381453156471252,0.6364431381225586,-0.16833104193210602,2.145103693008423,0.506914496421814,-0.15221823751926422,0.9174071550369263,-0.76954185962677,1.1461611986160278,-0.4123704135417938,0.229258194565773,-0.6777020692825317,0.22655881941318512,0.43967968225479126,-0.10981807857751846,0.006828416138887405,0.9479573965072632,-0.8452942371368408,-0.6240874528884888,-0.1983300894498825,1.437853217124939,0.22087985277175903,0.12984894216060638,0.06866659224033356,0.3584360182285309,0.0467233844101429,0.8422717452049255,0.3281891942024231,-0.6187938451766968,0.2799447774887085,-0.699680745601654,-0.5701214671134949,0.5900617837905884,-0.3656098544597626,0.7882610559463501,-0.4078522026538849,0.149065300822258,-0.3881990313529968,-0.25256967544555664,-0.7619865536689758,0.39291271567344666,0.03620434179902077,-1.819735050201416,-0.2980332374572754,0.7573984265327454,0.7255032062530518,0.730606734752655,0.27598196268081665,0.24346894025802612,1.9365335702896118,0.33471253514289856,0.678191602230072,0.9010469317436218,0.08795150369405746,-0.1786838173866272,-0.8279018402099609,0.6885650157928467,0.44156649708747864,-0.8734759092330933
TC0011,-0.3930348753929138,0.6623445749282837,-0.5643582344055176,0.08267278969287872,0.5485222935676575,-0.10392026603221893,0.2036103904247284,-0.30571502447128296,0.14318262040615082,1.50829017162323,0.3779970407485962,-0.3019075095653534,-0.1340237259864807,0.7173216938972473,-0.5933554768562317,0.2522240877151489,-1.387044906616211,-0.1611093282699585,1.0339539051055908,-0.04067881405353546,-1.013304352760315,1.1585021018981934,0.21285809576511383,-0.3165922462940216,-0.4358046352863312,-0.24894006550312042,1.2953121662139893,0.2957741618156433,0.16655191779136658,0.37060144543647766,-0.547211229801178,0.8204991817474365,1.1780827045440674,-0.7555534839630127,0.8292721509933472,-1.6106524467468262,-0.24117252230644226,-0.519661545753479,0.5622637271881104,-1.520971655845642,0.49096909165382385,0.057735539972782135,0.46721774339675903,-0.16206568479537964,-1.0639203786849976,0.5888632535934448,-0.35208576917648315,-1.6301970481872559,-0.7884551882743835,0.17182721197605133,-0.5699709057807922,0.4215344488620758,1.9412477016448975,-0.7784066796302795,1.016697883605957,0.5395888686180115,-0.017451781779527664,1.1318053007125854,1.4424738883972168,-0.2315494865179062,-1.0451050996780396,0.987278938293457,0.5319080948829651,-1.337673306465149
TC0012,0.04227200523018837,0.2732233703136444,-1.0371414422988892,-0.48238906264305115,0.49540290236473083,-0.04606970399618149,0.15762384235858917,-0.7590169310569763,0.9075482487678528,2.1549620628356934,0.4235423803329468,0.4318069815635681,-1.0034174919128418,0.8829512596130371,0.1361227184534073,0.37591448426246643,-1.5350998640060425,0.5110138654708862,1.0183680057525635,-0.44035032391548157,-0.2656407058238983,1.1630176305770874,-0.062437694519758224,-0.2514893710613251,-1.2851976156234741,0.0937766432762146,1.453686237335205,-0.24773162603378296,0.48493123054504395,0.12075886130332947,-0.4554555118083954,1.0249472856521606,0.7192455530166626,-0.6418421864509583,0.785408079624176,-1.9623373746871948,-1.180449366569519,-0.6006546020507812,0.6446750164031982,-1.3459281921386719,0.15371498465538025,0.4264014661312103,0.8190295696258545,-0.5428368449211121,-1.188107967376709,0.6150139570236206,-0.5274972319602966,-0.9201943874359131,-0.20793230831623077,0.2111637145280838,0.011746002361178398,0.33502519130706787,2.3464794158935547,-0.44048115611076355,2.124074697494507,0.15630272030830383,-0.22589921951293945,0.8842165470123291,1.8166526556015015,0.5818724632263184,-1.0907795429229736,0.8641705513000488,0.45326393842697144,-1.5183789730072021
TC0013,-0.19379840791225433,-0.48585355281829834,-1.5319240093231201,-0.23201324045658112,2.408325672149658,-0.8464315533638,-0.5785458087921143,-0.7622103095054626,-0.8430569171905518,-0.7229267358779907,-0.5973846316337585,0.8745942711830139,-1.89291250705719,-0.26052382588386536,0.5230056643486023,-0.5690102577209473,1.1206086874008179,0.2974262237548828,-1.2649115324020386,1.841439127922058,0.07424655556678772,0.8314078450202942,-0.7648669481277466,-1.9785075187683105,-0.051984068006277084,0.9513533711433411,0.40770721435546875,0.9245380759239197,-0.7732662558555603,-0.44848355650901794,-1.9984947443008423,1.6863725185394287,-0.337108314037323,0.9782750606536865,1.3660755157470703,-0.44717708230018616,0.8431347012519836,0.5649118423461914,-1.206982135772705,-1.127334475517273,0.542344868183136,-1.281997799873352,0.10213509202003479,0.8175026178359985,-0.40995490550994873,1.6189241409301758,-1.266850471496582,-0.5137374997138977,-0.29919636249542236,0.4191482365131378,0.28654950857162476,0.061983294785022736,-0.1844588667154312,0.4072146415710449,1.1639412641525269,-0.23413728177547455,0.4348500370979309,-1.3032708168029785,-0.30983495712280273,1.0164543390274048,-0.7321427464485168,0.6236084699630737,1.8684214353561401,-0.5600498914718628
TC0014,0.32385528087615967,-0.3426406681537628,-0.6069732308387756,0.3832671642303467,0.7685543894767761,-0.2808264195919037,-0.6477558016777039,0.135013148188591,-1.3490824699401855,-0.8073641657829285,1.588691234588623,-1.1503394842147827,0.302375465631485,0.1299232542514801,-0.06649550050497055,0.4329403340816498,-0.46433696150779724,-0.3170909285545349,-0.3419288694858551,2.657831907272339,1.581417441368103,-1.1159026622772217,-0.16651113331317902,0.04916900768876076,-0.21446575224399567,-1.0271378755569458,0.8078262805938721,-0.6232662796974182,0.31151363253593445,-0.566096842288971,-2.3697023391723633,0.2122904360294342,-0.40465429425239563,-0.1461440920829773,-0.3394278585910797,-1.8820147514343262,-0.7090305685997009,0.7628586292266846,1.0774608850479126,-1.128590703010559,0.6413912177085876,-0.3932863175868988,-0.15843075513839722,-0.2679503858089447,-1.2453076839447021,0.12857942283153534,-0.3776794672012329,-1.072684407234192,1.033725619316101,1.1667938232421875,-1.4326170682907104,0.3956087827682495,0.7720229625701904,-0.15296398103237152,-0.44222232699394226,0.5170788168907166,0.6661096215248108,-0.41703274846076965,1.6387609243392944,0.4607490301132202,1.7349413633346558,1.2653731107711792,1.128463864326477,-0.001889181206934154
TC0015,-1.187045931816101,0.9596960544586182,-1.3595439195632935,-0.7476997971534729,0.14295856654644012,-0.6492686867713928,1.1553624868392944,-1.0056636333465576,0.17741353809833527,0.47096627950668335,1.082964301109314,0.18012841045856476,-0.8213646411895752,0.09778057038784027,1.1282939910888672,0.01724417507648468,0.6186457276344299,0.14415085315704346,-0.919110119342804,0.6898179650306702,-1.1232436895370483,-0.5273997187614441,0.3004567325115204,-0.14276762306690216,-0.12405035644769669,-0.46185579895973206,0.007872378453612328,0.1221904382109642,0.9421553015708923,-0.49002915620803833,-1.746782660484314,1.0590271949768066,-0.6183432936668396,-1.6592931747436523,0.8847185969352722,-1.1772123575210571,-0.7382670640945435,2.0238211154937744,0.03455723077058792,-0.2014654576778412,0.653093695640564,-0.41744130849838257,0.5275669097900391,0.19896343350410461,-0.8250657320022583,0.791755735874176,0.6007867455482483,-2.133953094482422,0.5217162370681763,-0.0946371927857399,0.616733729839325,1.0210843086242676,0.10307175666093826,0.06681068986654282,1.1771624088287354,0.38361528515815735,1.0475897789001465,-1.2466397285461426,1.1376960277557373,-0.5031855702400208,-0.06219148263335228,0.2990592122077942,2.6169018745422363,-0.5771921873092651
TC0016,-1.1064807176589966,0.7684558033943176,-1.9478024244308472,-1.0847800970077515,0.37635108828544617,-0.20732295513153076,-1.4263707399368286,-0.3129587769508362,-0.6168895363807678,0.33240750432014465,0.29567793011665344,-0.5769020318984985,0.5660027861595154,1.2002952098846436,0.92920982837677,0.2137894630432129,0.42107903957366943,-0.5428395867347717,0.5545783042907715,2.395672082901001,-1.0566548109054565,-0.4698500335216522,-1.7394214868545532,-0.35251903533935547,0.3613101541996002,-0.7308739423751831,-0.9012953042984009,0.2069048434495926,0.3970451354980469,-1.0607194900512695,-2.1980032920837402,0.5040461421012878,-2.1282060146331787,-1.2308541536331177,-0.5404217839241028,1.505123257637024,-0.10256996005773544,1.3741357326507568,-0.5302298069000244,-0.42724859714508057,0.5408914685249329,-1.7611347436904907,0.781699538230896,-0.8954281806945801,-0.2565527558326721,-0.22665028274059296,-0.6440019607543945,-1.5780898332595825,1.0474061965942383,0.020770838484168053,0.13176435232162476,1.0271055698394775,0.5312494039535522,0.9708884954452515,0.7574228644371033,-0.7577389478683472,1.177285075187683,0.2824942469596863,2.6480448246002197,1.4720032215118408,-0.4977399706840515,1.344425082206726,1.8513916730880737,-1.3057925701141357
TC0017,-1.3440686464309692,1.013326644897461,-0.71262127161026,-0.9687730073928833,1.7540253400802612,-1.7705127000808716,0.5851186513900757,-0.7133181095123291,-0.812779426574707,1.3403953313827515,-1.0294950008392334,-1.1641740798950195,-0.9862557649612427,0.6336422562599182,-1.498547911643982,-0.7739823460578918,0.3666687309741974,-0.3847786486148834,-0.7249974012374878,0.7748668789863586,-0.05008808523416519,-0.373707115650177,-0.5184156894683838,-0.3303499221801758,-0.3535836338996887,0.14957039058208466,0.41468173265457153,0.15079160034656525,0.5938214063644409,-0.5606239438056946,-2.454392910003662,-0.09743501245975494,0.034761082381010056,0.30077260732650757,1.2465423345565796,0.2660239040851593,0.7415576577186584,0.9975190758705139,0.0843275859951973,-0.7395639419555664,0.39251574873924255,0.7329635620117188,1.1039668321609497,0.9556553363800049,1.1609464883804321,-0.3380129635334015,-0.4467461109161377,-0.8183131814002991,0.12857848405838013,0.4213431179523468,0.043596863746643066,0.16466908156871796,0.5251240730285645,1.0233087539672852,0.658900797367096,-0.2933948040008545,1.0573359727859497,-0.21953673660755157,1.078777551651001,-0.37908264994621277,0.4877512753009796,0.5531598329544067,2.325690507888794,-0.8852963447570801
TC0018,-0.3911621868610382,-0.8083088397979736,0.1031513512134552,0.5378986597061157,0.48108333349227905,-0.060801148414611816,0.25632455945014954,-1.0639698505401611,-0.8411576151847839,0.667489767074585,0.004673835821449757,-0.20227494835853577,1.291046380996704,0.22628921270370483,0.32744839787483215,1.4647163152694702,-0.46886375546455383,0.3238610327243805,0.8288641571998596,1.463850498199463,0.38812917470932007,-1.1748496294021606,-1.1783664226531982,0.10987445712089539,-1.2705419063568115,-0.09422378987073898,0.36782222986221313,-0.12947654724121094,-0.35612982511520386,-1.001276969909668,0.3776920735836029,0.14854322373867035,0.05350230261683464,-0.5107980966567993,-1.2619763612747192,0.13089211285114288,0.7315207123756409,2.33056378364563,-1.3285713195800781,-1.9880772829055786,0.5997097492218018,0.5049718022346497,1.5704009532928467,0.5974526405334473,-2.079249858856201,-0.29302966594696045,-0.6807363629341125,0.6805409789085388,-0.20268835127353668,0.8529822826385498,-1.4133961200714111,1.1426372528076172,1.1497607231140137,1.5288196802139282,-0.9772112369537354,-1.0085099935531616,-0.5936244130134583,-0.841762363910675,0.659527063369751,1.8153270483016968,-1.4742958545684814,-0.4220890402793884,1.095533013343811,-0.38207387924194336
TC0019,-0.08463393896818161,0.18498754501342773,-1.0729695558547974,-0.4550964832305908,1.081942081451416,-1.964773416519165,-1.9356940984725952,-0.8324565887451172,0.7827702164649963,0.8829864263534546,0.4641322195529938,-0.5494323968887329,0.10464345663785934,0.123357392847538,0.34361404180526733,0.682469367980957,-0.05606067553162575,-0.3864516317844391,-0.12070362269878387,2.410464286804199,-0.5055515766143799,-1.6725451946258545,-0.08288824558258057,0.530958890914917,-0.459166944026947,-0.6200673580169678,1.071168303489685,-0.14790166914463043,-0.27738040685653687,-1.485849380493164,-0.9375486969947815,0.04198809340596199,-1.3516252040863037,-0.5189145803451538,0.1274678111076355,-0.7804287672042847,0.8808518052101135,-0.2621932327747345,-0.6323713064193726,0.295465350151062,0.3916575610637665,0.4006660282611847,1.0092839002609253,-0.43172982335090637,-2.5918948650360107,-0.23324507474899292,0.46591901779174805,0.26017946004867554,0.16468827426433563,-0.2593536972999573,-0.7994136214256287,0.020369304344058037,-0.8216586112976074,-0.00923053827136755,-0.8741466403007507,-0.5306545495986938,1.2353047132492065,-1.2783998250961304,1.253008484840393,1.0221999883651733,0.7311474084854126,-0.14744554460048676,1.227944254875183,-0.979966402053833
TC0020,0.5827312469482422,0.3015041649341583,-1.2072038650512695,-0.6129297018051147,-0.7970335483551025,-1.5405739545822144,-1.186645746231079,-0.14971214532852173,0.47633230686187744,0.4060171842575073,-0.036481451243162155,-0.6535521149635315,1.474949598312378,-0.8127593398094177,-0.04840906336903572,0.5039982199668884,-0.6292929649353027,-1.2348524332046509,0.652586042881012,1.8055815696716309,0.08430945128202438,-1.5139442682266235,-1.5786470174789429,-0.5566601157188416,-0.8216618895530701,1.7355862855911255,-1.402957797050476,-0.5447723865509033,-0.15707670152187347,0.06780081987380981,-1.4517757892608643,0.09004246443510056,0.3539313077926636,-1.0080772638320923,-0.13486725091934204,-0.8358712196350098,0.41286149621009827,1.2609988451004028,-1.3726009130477905,-1.0980783700942993,0.03866428881883621,1.176321029663086,0.19324494898319244,0.5081641674041748,-2.2357101440429688,0.48449328541755676,0.12243393063545227,-0.10263378173112869,0.798507034778595,-0.15980318188667297,-0.6097602844238281,0.5009548664093018,-1.0262715816497803,0.980244517326355,-0.15913130342960358,-0.2488948106765747,0.06361818313598633,-0.15615251660346985,-0.4697316586971283,1.3345255851745605,-0.05542278289794922,0.7249329686164856,0.8798621892929077,-1.5533548593521118
TC0021,-0.47961780428886414,1.1460824012756348,0.22992485761642456,0.2729654014110565,-0.42786523699760437,-1.5435056686401367,0.06391269713640213,0.13292646408081055,-0.061032429337501526,1.5862256288528442,-0.2086055427789688,-0.4192225933074951,0.5375838279724121,0.06903981417417526,1.1171873807907104,-0.5183002948760986,1.3521175384521484,-0.43507587909698486,-1.411688208580017,1.8012832403182983,-1.4752885103225708,-0.9487460255622864,-0.3356967270374298,-1.274595856666565,0.3925343155860901,-1.101996898651123,0.6850524544715881,2.6237425804138184,-0.7886949181556702,0.19768495857715607,-0.6033968329429626,-0.13745753467082977,0.8477518558502197,-0.023354463279247284,0.18173961341381073,-0.00389445130713284,2.079437255859375,1.3010575771331787,-1.6275360584259033,-0.23269331455230713,0.17452701926231384,-0.07526513934135437,-0.305275022983551,0.8493693470954895,0.34064313769340515,0.9036989808082581,-1.3256698846817017,-0.6370595693588257,-0.21758900582790375,1.3208990097045898,0.5721351504325867,3.2850472927093506,-0.2664731740951538,-0.5223609209060669,-0.2408618927001953,-1.2893742322921753,0.9578233361244202,-0.4888240694999695,0.48518404364585876,1.3912156820297241,-1.069304347038269,0.9261512756347656,1.8792415857315063,-0.8854187726974487
TC0022,-0.0607246458530426,-0.6773231029510498,-0.21636144816875458,-0.5505227446556091,0.28114649653434753,-1.766603708267212,0.6506444215774536,-1.2556134462356567,0.15529777109622955,-1.4112446308135986,0.8966772556304932,-0.4114386737346649,0.04271310567855835,-0.7870160937309265,-0.7215582132339478,1.8461512327194214,-0.4947768449783325,-1.7972561120986938,-1.7798402309417725,2.64081072807312,0.1745840311050415,-0.5071194767951965,-1.3172614574432373,-0.5186209082603455,0.6625407934188843,-1.3332271575927734,0.009650224819779396,-0.06350278854370117,-1.1164348125457764,-1.9043203592300415,-1.8647961616516113,1.2198007106781006,-0.4186292290687561,-0.48698046803474426,0.4625591039657593,-0.46536409854888916,-0.5861085057258606,1.4803054332733154,-1.1987533569335938,-0.7066830992698669,-0.8005829453468323,0.03222932666540146,0.8951432108879089,-0.3501223027706146,-0.7940319776535034,1.820386290550232,-1.3589880466461182,0.20156879723072052,0.06460461765527725,1.1038440465927124,0.3665638864040375,1.1483122110366821,0.06349923461675644,0.19166404008865356,0.38078463077545166,-0.37736091017723083,-0.4745592474937439,-0.9346692562103271,0.6314111948013306,2.1132125854492188,1.2158139944076538,1.2877438068389893,1.6681222915649414,-1.1528301239013672
TC0023,-0.87623131275177,-0.028504207730293274,0.1275395303964615,1.2866648435592651,1.1993125677108765,-2.123216152191162,0.3354494273662567,0.6689743399620056,0.8172121644020081,0.9945586323738098,-0.1603197157382965,-0.1371859461069107,-0.05655014514923096,-1.1994575262069702,-0.1356225311756134,0.24392786622047424,0.46784067153930664,-1.4524333477020264,-0.6967180967330933,1.8505866527557373,-1.2770061492919922,-0.2832391858100891,-1.5954537391662598,0.4020204246044159,-0.5825368762016296,-0.21926714479923248,1.175215482711792,-0.3903934359550476,0.5154115557670593,-0.7107222080230713,-0.8520509004592896,1.5780706405639648,-0.8341892957687378,0.3504102826118469,0.9295694828033447,-1.2349727153778076,-0.2965160012245178,0.6150093078613281,-0.39439135789871216,-1.2057398557662964,-0.39031922817230225,0.14977073669433594,0.515778660774231,0.21909289062023163,-1.1616467237472534,-0.08539104461669922,-0.444325715303421,0.1490616351366043,-0.1308373510837555,0.9335870146751404,-0.46146103739738464,-0.3071589767932892,0.9652909636497498,-0.9386707544326782,0.4140750467777252,-1.8937132358551025,-0.24940930306911469,-0.7646870017051697,-0.06960597634315491,1.5613261461257935,-1.5655367374420166,0.5848670601844788,1.1074655055999756,-1.947788953781128
TC0024,-0.3250955641269684,-1.3523964881896973,0.21751117706298828,0.6481773853302002,1.6630852222442627,-0.2364250123500824,-1.4682939052581787,-1.8404425382614136,0.29471465945243835,0.3774542808532715,0.3503749370574951,0.08811845630407333,-0.540414035320282,0.7999415993690491,-0.39165279269218445,0.9427860379219055,0.538798987865448,0.5814270377159119,-0.42153269052505493,0.7913904786109924,-1.7428383827209473,0.6756255626678467,-1.080710768699646,-0.29737886786460876,0.8458201885223389,-2.173574447631836,0.5462360382080078,0.5980664491653442,0.8854237198829651,-0.9135321974754333,-1.7289592027664185,-0.3937391936779022,0.17532536387443542,0.012522554956376553,0.6493654847145081,0.06022419035434723,1.6240386962890625,0.2129460573196411,0.24882249534130096,-0.5256496071815491,0.6534761786460876,-0.15084657073020935,0.7789929509162903,-0.6486926674842834,-0.9364575743675232,-1.5567914247512817,-1.4408469200134277,-3.163583993911743,0.06280483305454254,0.30938467383384705,0.6002495288848877,-1.1813844442367554,-0.190349280834198,0.49573275446891785,-0.7626467943191528,-1.3286069631576538,0.45776668190956116,-0.7683999538421631,0.2847974896430969,-0.06533097475767136,0.17986531555652618,0.4738323986530304,1.8225958347320557,-1.9314868450164795
TC0025,0.18626821041107178,-0.0836564227938652,-1.1755468845367432,0.17474843561649323,0.8435243368148804,-1.9181519746780396,-0.2871791422367096,-1.9499129056930542,1.2710620164871216,0.2942439615726471,0.8027696013450623,-2.8010244369506836,0.2275245040655136,0.9492438435554504,-1.0501906871795654,-1.426323652267456,-0.7059632539749146,-1.4477925300598145,-0.048593100160360336,1.3690539598464966,0.793144702911377,-0.504555881023407,0.5486769676208496,-0.05406120419502258,0.2952600419521332,0.056868646293878555,0.49513331055641174,-1.0464822053909302,0.28253647685050964,-1.1057806015014648,-0.8647220134735107,0.3247665464878082,-0.49144652485847473,-0.544640064239502,-0.5891798138618469,0.2645605206489563,0.5978878140449524,0.5395402908325195,-0.5548025965690613,-0.6235379576683044,-1.129502534866333,-0.5840398669242859,-0.03016667626798153,1.0919286012649536,-2.0680596828460693,0.8757315278053284,-1.4565353393554688,0.20707254111766815,-0.556466281414032,-0.005830471403896809,-0.26686298847198486,1.0748560428619385,0.30623093247413635,0.20503906905651093,1.142425298690796,0.7245617508888245,-0.7638307213783264,-1.1583869457244873,0.5434470176696777,0.21178530156612396,-0.09823565185070038,0.37764716148376465,1.1471426486968994,0.23828479647636414
TC0026,0.4913969933986664,0.41788026690483093,-0.6535698771476746,-0.7953200936317444,0.14219406247138977,0.12060058861970901,0.21906958520412445,-0.23048119246959686,-0.7977218627929688,-0.8616454005241394,0.4267367720603943,-1.0514472723007202,0.08737637847661972,1.2622712850570679,-0.2646430432796478,0.07359007000923157,-0.6048147082328796,-1.7277262210845947,1.4595824480056763,0.798004150390625,0.6933755874633789,-0.5979669690132141,-0.7057080864906311,-0.215669646859169,0.2494477778673172,-0.14271320402622223,-0.2658083736896515,1.2453033924102783,0.47091197967529297,-0.547161340713501,-1.8116421699523926,0.23449939489364624,-0.5566138029098511,-0.3805736303329468,-0.16606734693050385,0.14087717235088348,0.2939150929450989,0.6224424839019775,0.3974844813346863,-0.09246695041656494,-0.27355459332466125,0.6596719026565552,0.7836048007011414,0.9042515754699707,-1.9160853624343872,0.9132735729217529,-1.3141177892684937,1.530218482017517,-1.746278166770935,0.6624703407287598,0.7365846037864685,1.2267385721206665,1.0316276550292969,2.0460147857666016,2.0214524269104004,0.1108468696475029,-0.31391245126724243,0.2043471783399582,0.30242887139320374,0.8438091278076172,0.6236875653266907,0.6760072112083435,0.5283583998680115,-1.2524656057357788
TC0027,0.5901747345924377,0.5642311573028564,-1.5301319360733032,0.2968662679195404,1.647215723991394,-1.461708426475525,-2.04304838180542,-0.5852295756340027,-0.3945241868495941,-1.457646131515503,-0.7274466753005981,-1.238114595413208,0.1721891164779663,0.9579101204872131,-0.2188660353422165,0.9489635229110718,-0.9260135293006897,-1.6632205247879028,0.6175538301467896,0.4944518208503723,0.4569868743419647,-1.948700189590454,-0.7254282236099243,0.8005074262619019,0.4459817409515381,0.1130867451429367,-0.11915189772844315,-0.5933281779289246,0.03717070445418358,-0.694695234298706,-1.0679720640182495,0.7166336178779602,0.5352153778076172,-0.4715240001678467,0.38725194334983826,-0.04104944318532944,0.6534476280212402,1.402344822883606,0.5941430330276489,-2.115508556365967,-0.5212701559066772,0.06336018443107605,0.010680191218852997,0.8836463689804077,-2.5364248752593994,1.1887505054473877,0.44589656591415405,-0.6198780536651611,-1.0582351684570312,0.3728119432926178,0.9753043055534363,0.26231634616851807,0.2775289714336395,0.4009576439857483,1.1332062482833862,1.217633843421936,0.5621800422668457,-0.2741064131259918,-0.029515201225876808,0.8990593552589417,0.4767483174800873,1.2848883867263794,1.4953006505966187,-0.07507472485303879
TC0028,0.8034865856170654,0.4001646935939789,-0.9545544981956482,-0.09241466969251633,-0.8605629205703735,-0.21002307534217834,0.11572416126728058,-0.8418819308280945,-0.3685254752635956,-0.1679442822933197,0.41315561532974243,-0.5965947508811951,0.3876459002494812,0.4493807852268219,-0.17585203051567078,0.20484428107738495,-1.4308669567108154,-1.3714215755462646,0.01688017137348652,0.4106418490409851,0.7979729175567627,0.6156463623046875,-1.0928164720535278,-0.7365309596061707,0.8218331933021545,0.1570841372013092,-0.6320571899414062,-0.14664171636104584,1.2218583822250366,-0.3233707845211029,-1.0171583890914917,0.8282293677330017,-1.7873682975769043,-1.0670571327209473,0.28122812509536743,-0.254385381937027,-0.3429548442363739,0.6269963383674622,-0.3508068025112152,-0.19701772928237915,-0.9427044987678528,0.18731755018234253,-0.6775298714637756,0.4142513573169708,-2.021421432495117,-0.1979524940252304,-1.8730806112289429,-0.6041529178619385,-0.4039388597011566,0.7144893407821655,0.12210062146186829,1.748666763305664,0.24841053783893585,1.655832052230835,1.1836708784103394,0.4985458254814148,0.1493881791830063,0.4599120020866394,0.6789335608482361,0.9320318698883057,0.10931435972452164,0.32535088062286377,0.861665666103363,-1.5332615375518799
TC0029,0.48764514923095703,0.8853511810302734,-0.0030694459564983845,0.16679738461971283,1.0854929685592651,-0.7623779773712158,0.2744736075401306,-1.2916171550750732,0.8044650554656982,0.23583915829658508,-0.7565667629241943,-0.4192241132259369,-0.10023099929094315,-0.5511102676391602,-0.5816482305526733,0.7651026844978333,0.2981413006782532,0.1608942747116089,0.8242983818054199,0.6176801323890686,0.4799026548862457,0.9805091619491577,-0.23200088739395142,0.049239885061979294,-1.597949504852295,-0.39983803033828735,0.8189588785171509,0.5607805848121643,0.2969073951244354,-0.6297067999839783,0.014795422554016113,0.030099760740995407,-0.08268945664167404,0.7806625366210938,0.2988681495189667,-0.4961503744125366,-0.3007449507713318,0.9888755083084106,-1.563415765762329,-0.6584007143974304,-0.12301928550004959,-0.7362784147262573,-0.6467964053153992,0.3988121747970581,-0.35856014490127563,-0.40127843618392944,-1.062325358390808,-0.24860872328281403,-0.007600740529596806,0.6775971055030823,-0.6528138518333435,-0.5703718662261963,-0.6144716739654541,0.15237294137477875,-0.35016509890556335,0.19726409018039703,0.22628429532051086,-0.16512756049633026,0.11591703444719315,-0.1197846531867981,0.1902914047241211,1.10469388961792,1.3710287809371948,-0.9165846705436707
TC0030,-0.11956287920475006,1.5136841535568237,0.45039883255958557,-0.46239179372787476,-0.1956433802843094,0.6966841816902161,0.2774103879928589,0.0808706134557724,1.5576506853103638,0.07489479333162308,-0.7270001173019409,-0.18570087850093842,-1.0266588926315308,-0.5636305809020996,-0.2993696630001068,0.6847293376922607,-1.2189666032791138,-0.24156343936920166,0.17505750060081482,1.144041895866394,0.9093651175498962,-0.4662559926509857,0.8915649652481079,0.7094501256942749,0.37037304043769836,-0.9204028844833374,-0.23601263761520386,-0.45395833253860474,-0.7773253917694092,-0.5367878675460815,0.5925891995429993,0.5826590061187744,0.1345025599002838,-0.39732351899147034,-0.60796719789505,0.44316622614860535,0.23467569053173065,1.1279301643371582,-2.8263566493988037,-0.4766283929347992,0.5170033574104309,0.08424213528633118,-0.19134029746055603,0.4873543083667755,-0.7443729639053345,-0.7237362861633301,-1.3221814632415771,-1.9874918460845947,-0.12823578715324402,1.9998258352279663,-2.5678279399871826,-0.7321978211402893,-0.2930260896682739,-1.1058886051177979,-0.20140181481838226,-0.33179065585136414,0.2131575047969818,0.9160531759262085,1.2305201292037964,-1.104762315750122,-0.2970900535583496,-0.130098357796669,0.4852916896343231,-1.2378865480422974
TC0031,-0.09832905232906342,1.0363987684249878,0.7214331030845642,0.76201993227005,-0.33007970452308655,-0.6083628535270691,0.657696008682251,-1.381990909576416,-0.42837774753570557,0.6129674911499023,0.4732625484466553,0.3961533010005951,0.3362111747264862,-0.8154452443122864,-0.49021074175834656,-0.9126784205436707,-1.8342314958572388,-1.6667373180389404,0.7510300874710083,0.1255611777305603,0.39517903327941895,0.8774740695953369,-0.5094373226165771,0.24241095781326294,-0.28401923179626465,-0.38050249218940735,-0.23572078347206116,0.778737485408783,-0.253897488117218,-0.5138624310493469,-1.6189794540405273,0.13075730204582214,0.1548687070608139,1.4027167558670044,-1.2087393999099731,1.5238332748413086,0.1728856861591339,0.6468284726142883,-1.3470805883407593,0.3197519779205322,0.0394161120057106,-0.06850112974643707,0.3495779037475586,1.4233983755111694,-1.7405035495758057,0.08718910068273544,-0.5056014060974121,-1.066300630569458,-0.444734126329422,1.3718997240066528,-1.0457655191421509,1.0986860990524292,0.5877025127410889,-0.2928307354450226,0.3786521852016449,-0.7054424285888672,-0.38278037309646606,-0.5819295048713684,0.9299770593643188,2.126865863800049,-0.016476089134812355,-1.5292190313339233,0.886042058467865,-1.2462555170059204
TC0032,0.4773266613483429,1.1330784559249878,-0.574006199836731,-0.4411400258541107,1.3673746585845947,-0.18774698674678802,0.01789717748761177,0.44316810369491577,0.7690535187721252,0.7336376309394836,0.7530362010002136,0.6323707699775696,-1.3415123224258423,-0.3568355143070221,0.3627433776855469,1.8762251138687134,-1.4431670904159546,0.4722902774810791,-0.9360193014144897,1.2190102338790894,-0.9045130014419556,-0.10084366798400879,-0.6878485679626465,0.36390289664268494,0.788546085357666,1.3939955234527588,-0.6262465119361877,0.7666199207305908,-0.6833702325820923,-0.615982711315155,-2.652332067489624,1.2012370824813843,-0.98345947265625,0.5313639044761658,-0.17733295261859894,-0.5074169039726257,0.8965544104576111,0.13636302947998047,0.22392117977142334,-0.5298935174942017,-1.1946381330490112,-0.23917046189308167,-0.18187439441680908,1.4968258142471313,-1.4818745851516724,-0.19082723557949066,1.0253430604934692,0.06478352099657059,0.25376996397972107,0.9195154309272766,-2.0555434226989746,0.6559141874313354,0.12147247046232224,0.4789493978023529,0.4242240786552429,-0.49152928590774536,0.18267638981342316,0.15296632051467896,2.0014214515686035,-0.1263585388660431,-0.21411803364753723,0.6018803715705872,1.6419624090194702,-0.4135587811470032
TC0033,-0.6240719556808472,1.1138298511505127,-0.3706570863723755,-1.0632843971252441,0.28608134388923645,-1.1287379264831543,0.5770403146743774,0.34932586550712585,2.336045503616333,0.22210682928562164,0.8620105981826782,0.05899093300104141,-1.0235720872879028,-1.634448528289795,1.2896099090576172,1.3436121940612793,-1.6635409593582153,0.9322975277900696,-1.2295434474945068,1.7116754055023193,-1.5090910196304321,-0.08190463483333588,-1.036447525024414,-0.4748852849006653,-0.10318691283464432,0.22958919405937195,-1.113511085510254,0.6095582246780396,0.11001618206501007,-0.7526375651359558,-2.2215354442596436,1.7790610790252686,-0.9218013286590576,0.4133690595626831,-0.5062189102172852,-0.21409259736537933,0.7389417290687561,0.7977187037467957,-0.5509071350097656,-1.162222146987915,-2.604116678237915,0.6371951699256897,0.753868579864502,0.8279352188110352,-1.6973214149475098,-0.0033295038156211376,1.0191675424575806,-0.2856229245662689,0.901519238948822,0.8973142504692078,-1.3068886995315552,-0.03211986646056175,0.09697002172470093,1.5128366947174072,0.35372841358184814,-0.2837110459804535,-0.8768752813339233,0.7777895927429199,1.1215956211090088,0.22026653587818146,-1.1693129539489746,0.9222539067268372,-0.1917547583580017,-0.2653849422931671
TC0034,-0.043520487844944,1.4840776920318604,0.329939067363739,-0.5955197811126709,-0.27819785475730896,-0.3703696131706238,-0.3730812668800354,-0.41839635372161865,1.1009289026260376,-0.12051571160554886,1.2221176624298096,0.8192732930183411,-1.236517071723938,0.22375176846981049,-0.31709760427474976,2.1227831840515137,-0.7613900303840637,0.8213832378387451,-0.7562991380691528,1.5918532609939575,-1.0488412380218506,-1.032533884048462,-0.6212438344955444,-0.46829527616500854,0.5987532138824463,0.03513291850686073,-0.1826811283826828,-1.0498135089874268,-0.4729662239551544,-1.0045346021652222,-2.964850664138794,0.29323986172676086,-1.0462043285369873,0.5724296569824219,0.7487912178039551,-0.4017518162727356,-0.6421610116958618,1.7430894374847412,0.0426691472530365,-0.9986584186553955,-1.36040461063385,-0.6207632422447205,1.2498990297317505,0.7849354147911072,-1.090370535850525,0.11179177463054657,1.3443385362625122,-0.46286407113075256,0.1924974024295807,0.6170600056648254,-0.7371283769607544,0.5254853367805481,1.2334153652191162,0.4545174539089203,-0.4438963532447815,-1.0688486099243164,0.03485031798481941,1.3573126792907715,3.0416274070739746,-1.103525996208191,0.059318989515304565,1.1107783317565918,1.0305697917938232,-0.06755132973194122
TC0035,0.09042660146951675,2.6523070335388184,-0.7056078314781189,-0.43267717957496643,0.8562108874320984,-1.1859514713287354,0.8826478719711304,0.23413096368312836,1.640903115272522,0.525486409664154,1.0523121356964111,-0.5222421884536743,-1.2993413209915161,0.01299200113862753,0.2813316285610199,1.389872670173645,-0.9628060460090637,0.8643703460693359,-0.3483102321624756,2.0961241722106934,-1.2335883378982544,-0.9723913073539734,0.3233088552951813,-0.06961178779602051,-0.9207811951637268,0.3853185772895813,0.18505419790744781,-0.333105206489563,-0.3270696699619293,-1.0631450414657593,-3.063626527786255,0.9339487552642822,-1.545875072479248,0.4145299196243286,-0.2932194173336029,-1.1950571537017822,0.40807366371154785,0.7430787682533264,0.1914474368095398,-0.49646490812301636,-1.6649138927459717,-1.0736262798309326,1.2140073776245117,0.9134321808815002,-1.1465885639190674,0.44185593724250793,1.5848065614700317,0.3997584879398346,0.7833669185638428,1.0782569646835327,-0.9225925803184509,0.9507942795753479,0.49420449137687683,0.4271942377090454,-0.11312181502580643,-0.609173595905304,-0.7498208284378052,0.7382009029388428,2.1876134872436523,-0.01867002621293068,-1.0481215715408325,0.7596166133880615,1.518804669380188,0.2009442299604416
TC0036,0.24473045766353607,0.012592623941600323,-0.8754879832267761,-0.49285006523132324,1.376944661140442,-0.37267228960990906,0.3906511962413788,1.0066418647766113,2.580376386642456,-1.3428963422775269,0.09211710840463638,0.18539412319660187,-0.49261561036109924,-0.7877700924873352,-1.16685152053833,0.2726387083530426,-1.0496389865875244,0.5090612173080444,-1.4507955312728882,1.0617324113845825,-0.7040554881095886,-0.38128429651260376,-1.075305461883545,0.12967900931835175,-0.22154287993907928,1.7810096740722656,1.6552499532699585,0.328317254781723,0.2844304144382477,-0.9577175378799438,-0.8876087069511414,1.5278358459472656,-1.4108346700668335,-0.860617458820343,-0.6363580226898193,-0.6707342863082886,0.40866929292678833,0.6429515480995178,-1.4313573837280273,-0.1105828583240509,-1.008743166923523,-1.0520141124725342,0.9893403649330139,0.3044908046722412,-1.279616117477417,0.33310559391975403,-0.22859132289886475,0.3950790762901306,1.4337652921676636,0.3995046317577362,-1.971394419670105,-0.20053476095199585,-0.04926116764545441,1.286568284034729,0.4328826665878296,0.4017152190208435,-1.0396041870117188,-0.17109434306621552,1.7858911752700806,0.27996084094047546,-2.107914686203003,-0.08427971601486206,-0.6659226417541504,-0.7324454188346863
TC0037,0.9979896545410156,1.9604157209396362,-0.055329784750938416,1.2000253200531006,0.10390473902225494,-0.958206057548523,-0.27837029099464417,-0.47608479857444763,1.0643099546432495,-0.9361577033996582,1.077181339263916,0.33394643664360046,-0.43081527948379517,0.7679123282432556,-1.5229476690292358,0.9792771935462952,-1.5030869245529175,-2.172449827194214,-0.6162372827529907,0.3414224684238434,1.350294828414917,-0.5144736170768738,-1.2873806953430176,-0.05457765981554985,-2.209364175796509,-0.8092060089111328,-1.8223011493682861,0.9679092168807983,0.9199137687683105,-0.4611603915691376,-1.8774217367172241,-0.04486946016550064,-1.0680878162384033,-0.8083076477050781,2.0628044605255127,-0.5241288542747498,-0.3825834393501282,-0.6719225645065308,-0.6656103134155273,-1.242982268333435,-0.310840368270874,0.2853702902793884,0.04194224625825882,1.6318631172180176,-2.234288215637207,-0.23431998491287231,-0.16106082499027252,-0.8098381757736206,1.9374425411224365,0.6536669135093689,-0.11780179291963577,1.0449113845825195,0.03378443792462349,-0.4906124174594879,1.7679131031036377,-0.2338038831949234,-0.2462647557258606,-0.4421321153640747,-0.3560125529766083,0.6815681457519531,-0.579884946346283,-0.2838292121887207,0.15438580513000488,1.1521142721176147
TC0038,-0.5523278713226318,-0.877035915851593,0.4166107773780823,-0.6863751411437988,0.4414978623390198,0.5564725399017334,-1.26725172996521,0.10720217972993851,-1.0425069332122803,-0.7914891839027405,0.17654846608638763,0.7249320149421692,0.01917998678982258,-0.3826708495616913,0.031330935657024384,0.4050884544849396,-0.8789334297180176,-0.3740164339542389,-0.8736457228660583,1.397216558456421,0.21136483550071716,-0.5323197841644287,-0.4994758367538452,-0.05003982037305832,-0.18640314042568207,-0.13636931777000427,0.6099687814712524,-0.45582520961761475,0.11117450892925262,-0.008017212152481079,0.23687098920345306,0.5876014828681946,0.5742165446281433,-0.2541400194168091,-0.0015842426801100373,-1.0080571174621582,-0.5490700006484985,-0.6495767831802368,-0.5451304316520691,-0.5142734050750732,1.0049681663513184,1.492484450340271,0.48897621035575867,-0.3789771497249603,-2.0233194828033447,-0.11193252354860306,-1.3290647268295288,-0.5533514618873596,-0.7335931062698364,0.3543120324611664,-0.009498010389506817,0.7585434317588806,-0.16210374236106873,0.6379285454750061,-0.316631019115448,-0.5410585999488831,0.6984280347824097,0.8005340695381165,-0.3693665564060211,-0.4052177369594574,0.31094107031822205,1.1294841766357422,0.48161306977272034,-0.22146843373775482
TC0039,-1.0809308290481567,-0.22011007368564606,1.0363227128982544,0.537052571773529,0.7554424405097961,-0.19221198558807373,-0.18264609575271606,-0.42631977796554565,0.16013647615909576,0.0030627772212028503,-0.6262070536613464,0.6670390963554382,-1.4266659021377563,-0.030951805412769318,0.6543204188346863,-0.7380073666572571,-0.7603178024291992,-0.6052478551864624,-0.36263251304626465,0.9244264364242554,0.07241685688495636,1.0749799013137817,-0.9730159044265747,0.46978574991226196,-0.5553932189941406,-0.4878738522529602,0.975697934627533,0.10223692655563354,-0.9433496594429016,-0.037508681416511536,0.36378028988838196,-0.18372386693954468,-0.7459863424301147,0.6611829996109009,0.14321164786815643,0.2524701952934265,1.0008751153945923,0.9952454566955566,-0.406960666179657,-0.40806519985198975,-0.4927336573600769,0.39111602306365967,-0.37632063031196594,0.5169352293014526,-1.8042936325073242,0.7304061055183411,-0.7484413385391235,0.7999081015586853,-0.7411264181137085,-0.30365973711013794,0.9765759110450745,-0.5571732521057129,-0.4196052849292755,1.7502835988998413,0.1339222639799118,0.9532658457756042,0.47357872128486633,-0.15779493749141693,-0.8212350606918335,0.42833760380744934,1.0658546686172485,0.8280352354049683,1.477318525314331,-0.5890633463859558
TC0040,-1.833768606185913,-0.11858068406581879,1.0852388143539429,0.3492775857448578,0.9956714510917664,-0.20346231758594513,-0.10281281918287277,-0.5153292417526245,-0.31622835993766785,1.016010046005249,-0.2615092098712921,0.5153248310089111,-1.2552818059921265,-0.1794154942035675,1.079193115234375,-0.7729589343070984,-0.22921891510486603,0.3690424859523773,-0.9872676134109497,0.6064028143882751,0.33780404925346375,1.231027603149414,-0.6596192717552185,0.150090754032135,-1.3268855810165405,-0.66398686170578,1.1359210014343262,-0.7104640007019043,-2.0112850666046143,-0.7712624073028564,0.35341396927833557,0.11124340444803238,-1.1629835367202759,1.0826406478881836,0.3279655873775482,0.31604650616645813,0.9377902746200562,0.964205265045166,-0.7508080005645752,-0.7561776638031006,-0.5727999806404114,0.3308090567588806,-0.4386253356933594,-0.5687238574028015,-1.9432992935180664,0.473905473947525,-0.17825721204280853,0.5615427494049072,-0.3255653977394104,-0.656303346157074,-0.08526746928691864,-0.7847538590431213,-0.18569570779800415,1.000634789466858,-0.5132386684417725,2.0014097690582275,-0.09680721908807755,0.6267214417457581,-0.07901535928249359,-0.2819196581840515,0.714112401008606,1.2340106964111328,1.2658312320709229,-0.0810544490814209
TC0041,-2.0071544647216797,-0.273514062166214,1.4056670665740967,0.3605310916900635,1.5635138750076294,-0.2511720061302185,-0.21621961891651154,0.5459739565849304,-0.007983621209859848,1.044320821762085,-0.6831785440444946,0.6181958913803101,-2.3624656200408936,-0.6681867241859436,0.7245191335678101,-1.017411470413208,-0.5803245902061462,-0.09391329437494278,-0.7346414923667908,0.30401846766471863,0.3296113908290863,1.2776901721954346,-1.0811793804168701,0.393285870552063,-1.207137107849121,-1.2333570718765259,0.9882082343101501,-1.156822681427002,-1.1238874197006226,-0.4274992346763611,0.1501559019088745,-0.01220803614705801,-1.0060497522354126,1.3222318887710571,0.09283531457185745,0.7029585838317871,1.2111585140228271,-0.04464105889201164,-0.6449034810066223,-1.1302769184112549,-0.26133257150650024,0.02111951820552349,-0.7334271669387817,-0.11043410003185272,-2.1146249771118164,0.5700869560241699,-0.7522633671760559,0.02643538825213909,-0.8433974981307983,-0.25017520785331726,0.26124143600463867,-0.25107261538505554,-0.06894522160291672,1.4685553312301636,-0.4292104244232178,1.783757209777832,-0.29454880952835083,0.388504296541214,-1.2078416347503662,0.059750329703092575,1.024990439414978,0.7757081389427185,1.672223687171936,-0.2715757489204407
TC0042,-1.4885579347610474,-2.919501304626465,0.8595737814903259,-0.4029279351234436,-0.64849454164505,-0.2457357794046402,-0.15245139598846436,1.4552395343780518,-0.01850200816988945,0.4597512483596802,-0.7431626319885254,0.644108235836029,-0.7456104159355164,-0.011966410093009472,0.4770425856113434,2.9645333290100098,0.025758305564522743,-0.10558513551950455,-0.3319403827190399,-1.6417045593261719,-0.7797800898551941,0.1345328986644745,-0.5089011192321777,3.6101925373077393,-0.618747889995575,-4.577365398406982,0.17959623038768768,0.8333247303962708,0.08386079221963882,-0.7567629218101501,2.401428699493408,2.96208119392395,0.5768772959709167,0.295061320066452,1.4535458087921143,-1.0026849508285522,1.0802034139633179,2.1966798305511475,-2.3765981197357178,-1.9025765657424927,-1.9471594095230103,-1.801011562347412,-0.3074202537536621,0.9145475029945374,1.1959763765335083,-0.9818516969680786,-0.7783581018447876,0.03162373602390289,-0.20252758264541626,1.0541527271270752,-1.692543387413025,0.5237143039703369,1.8598469495773315,0.8353452086448669,0.40703827142715454,3.0928666591644287,-0.2115395963191986,-1.5156548023223877,0.8102988600730896,0.29207083582878113,-1.5345338582992554,0.4093138873577118,-0.16851095855236053,0.8695334196090698
TC0043,-1.9855352640151978,1.016148567199707,0.2606223225593567,-0.5996333956718445,0.6192929744720459,0.7562363147735596,0.3505288362503052,1.4341837167739868,0.7903698086738586,0.19346581399440765,0.3043198585510254,-0.665797770023346,0.14556899666786194,-1.3440543413162231,0.7509022355079651,0.8773819804191589,-0.0006908538634888828,1.0878740549087524,0.3554958701133728,0.5617285370826721,-0.21779172122478485,0.38003507256507874,-1.291454553604126,0.8970545530319214,-0.5052158832550049,-2.1820452213287354,1.9563096761703491,-0.33799779415130615,-2.213351249694824,-0.7790215015411377,-0.2830350399017334,-0.470733106136322,-1.4509105682373047,0.7509207129478455,0.18057605624198914,-0.663390576839447,1.4599809646606445,0.787918210029602,-1.1385259628295898,-1.5670448541641235,-0.4420340061187744,-0.30473509430885315,0.2584812343120575,-0.8442330956459045,-1.103738784790039,-0.715621292591095,-0.2799474000930786,-0.0006642593652941287,0.21714501082897186,-0.18524295091629028,0.3354717493057251,0.10765820741653442,0.9561278223991394,-0.789126992225647,-0.44189950823783875,1.9402899742126465,-0.025809142738580704,0.7574973702430725,0.7609338164329529,-0.6117321848869324,0.7250680923461914,0.2191523015499115,1.4063453674316406,0.3066663146018982
TC0044,-0.4156307280063629,-1.0112470388412476,1.1705738306045532,-0.8901247382164001,-0.48101362586021423,0.8032610416412354,-1.3993219137191772,0.16609297692775726,-1.079506278038025,-0.8135454058647156,0.3174206614494324,0.7940050363540649,-0.010191041976213455,-0.5264065265655518,-0.2301330268383026,1.2567368745803833,-1.6662404537200928,-0.3496333658695221,-0.6043435335159302,1.9757699966430664,0.8089160919189453,0.13212183117866516,-0.49569374322891235,0.41925689578056335,-0.3085187077522278,-0.25970420241355896,0.8490521907806396,-0.277675598859787,-0.09420987963676453,-0.06404253840446472,-0.11665448546409607,0.7879703640937805,1.201288104057312,0.5301132798194885,0.7209472060203552,-0.8147597312927246,-0.22032490372657776,-0.054647259414196014,-1.0475796461105347,-0.9754822850227356,0.9742944240570068,1.5069537162780762,0.39593109488487244,-0.57038813829422,-1.3211007118225098,0.2038641721010208,-1.8773362636566162,-0.6052690148353577,-1.0137547254562378,0.7878621816635132,0.15001513063907623,-0.06644964963197708,-0.4372299611568451,0.5820885896682739,-0.14419178664684296,0.022816192358732224,0.531029462814331,0.4877166450023651,0.01808498241007328,-0.6832956075668335,0.9311661124229431,0.8764497637748718,1.3173136711120605,0.2593621611595154
TC0045,-0.4866809546947479,-0.7767975926399231,0.48743298649787903,-0.04117056727409363,0.8878156542778015,-0.13603150844573975,0.3068852722644806,-0.45700132846832275,0.17285367846488953,0.6218687891960144,-0.6287302374839783,-0.4692615866661072,0.19979172945022583,-0.47473692893981934,0.027667993679642677,-0.015315969474613667,-0.5229782462120056,0.4326200783252716,-0.6425544619560242,0.7128983736038208,-0.013548729009926319,0.8308010101318359,-0.5890851616859436,0.9056994915008545,0.3181205689907074,0.3467099070549011,0.7864738702774048,0.753868818283081,-1.133371353149414,0.849723756313324,0.4881340265274048,0.381277859210968,-0.6817577481269836,-0.11838333308696747,-0.515939474105835,-0.7572240829467773,1.0022379159927368,-0.8233494758605957,0.1019514873623848,-0.4749927520751953,0.9335945248603821,0.1922270804643631,-1.0122472047805786,-0.04472268000245094,-0.8885656595230103,0.15857522189617157,-1.2473020553588867,0.22377900779247284,-1.2587436437606812,-0.3150453567504883,-0.37490376830101013,0.4201531708240509,-0.2267344892024994,1.6661430597305298,-0.5136609673500061,0.6297156810760498,0.828170657157898,-0.11414381861686707,-0.5592552423477173,0.4091740846633911,0.7743949890136719,1.2256953716278076,0.6043787598609924,0.18469257652759552
TC0046,-1.165959119796753,0.18994136154651642,0.3145872950553894,0.11824794113636017,1.061924695968628,-0.47970232367515564,-0.8129482269287109,-0.8329803347587585,0.8707808256149292,1.0035582780838013,-0.9380000829696655,0.081184022128582,-1.0172035694122314,0.07926876842975616,0.028173871338367462,-0.35936740040779114,-0.2694985270500183,0.3026430010795593,-0.32213765382766724,0.22413578629493713,0.31295570731163025,1.0538041591644287,-0.49988242983818054,-0.4210895001888275,-1.149451494216919,0.22084227204322815,0.8112534880638123,-0.27258017659187317,-1.2723292112350464,-0.06965351849794388,0.6745022535324097,-0.2963212728500366,-1.3614563941955566,1.8527010679244995,-0.43343228101730347,-0.5544440746307373,0.18336227536201477,-0.22135375440120697,-1.284031867980957,-0.658858060836792,-0.17392218112945557,-0.2904362976551056,-0.7216575145721436,0.9476355314254761,-0.6653705835342407,0.7067680954933167,-0.9840301871299744,1.3715405464172363,-0.50392085313797,0.14218804240226746,-0.8203449249267578,0.6741567850112915,-0.9220674633979797,1.4815881252288818,-1.0005578994750977,0.2748093605041504,0.7896915674209595,0.5293757915496826,-1.3710447549819946,0.07932107895612717,0.5293035507202148,1.6713136434555054,1.9135829210281372,0.05218702554702759
TC0047,-0.8853208422660828,-0.6686615943908691,-0.3223181664943695,-1.5377522706985474,0.5185325741767883,0.6120186448097229,-1.0294251441955566,-0.13048067688941956,-0.42211219668388367,1.7899410724639893,-0.4695529341697693,-0.6740095019340515,-1.6933252811431885,-1.2346351146697998,0.6987579464912415,1.5973559617996216,-0.8620929718017578,-1.9961620569229126,-1.526357889175415,1.6560901403427124,0.7064637541770935,1.5856478214263916,0.9859319925308228,0.8844422101974487,-0.6119381785392761,-1.374042272567749,-0.04493271932005882,0.35803595185279846,-0.9479936957359314,-1.3776177167892456,1.604235053062439,1.2185852527618408,1.0880885124206543,-0.7955664992332458,-2.1870410442352295,0.8239753246307373,0.14670589566230774,1.4237459897994995,-1.0304268598556519,-0.2955798804759979,0.9024171829223633,-0.5885823965072632,0.4383704960346222,1.0232948064804077,-1.2370808124542236,1.6920634508132935,-1.243219017982483,0.4554428458213806,0.6433229446411133,0.18497809767723083,0.028032472357153893,2.7468690872192383,0.07518520951271057,0.5304570198059082,0.08182627707719803,-0.41896510124206543,-0.5421071648597717,-1.6961253881454468,-0.6971005797386169,0.1399102509021759,-0.8799983859062195,0.055896028876304626,0.005542357452213764,0.5264063477516174
TC0048,-1.343382716178894,-1.5040735006332397,0.8464392423629761,-0.030434947460889816,-0.0924520269036293,0.05969417095184326,-1.4392545223236084,-2.179112672805786,-0.01794826239347458,0.8190292119979858,-0.2652020752429962,-0.62049400806427,-1.5234798192977905,-0.5874691009521484,0.21793149411678314,-0.12513697147369385,-0.6323155164718628,-1.1993988752365112,-0.4614945650100708,0.5073131918907166,-0.19882330298423767,0.9129894375801086,-1.033780813217163,0.6646654009819031,-0.3988381028175354,-0.4714348614215851,0.4124809503555298,-1.1461749076843262,-0.4775393009185791,0.11323226243257523,0.6120336055755615,-1.022459626197815,-0.3245885670185089,2.191833972930908,-0.7813513278961182,0.33193543553352356,0.11312242597341537,0.21136775612831116,-0.33785465359687805,-0.2288723587989807,0.4861600995063782,0.0873074010014534,-0.34424489736557007,1.002645492553711,-0.4210445284843445,0.5682971477508545,-1.3608603477478027,0.7936064004898071,-0.4625582695007324,1.467429280281067,-0.6634705662727356,1.0892890691757202,0.018682684749364853,0.5432087779045105,0.4609459936618805,0.2088118940591812,0.2658612132072449,0.6986991167068481,-1.3407427072525024,0.02348107099533081,1.5278303623199463,0.2650795578956604,1.3270703554153442,-0.3783342242240906
TC0049,-0.9932653903961182,-0.9931436777114868,1.9428762197494507,-0.18041032552719116,1.159945011138916,-0.49591878056526184,-0.9370038509368896,-1.0515047311782837,-0.44576525688171387,1.0387674570083618,-0.659619927406311,-1.1232318878173828,-0.4840114712715149,-0.3082188367843628,0.37632983922958374,-0.3527381718158722,-0.5971699357032776,-1.4898101091384888,0.13278600573539734,1.1892167329788208,-0.14016419649124146,0.8777437210083008,-0.8485389351844788,0.7502761483192444,-0.4166486859321594,-0.06467466801404953,0.443602591753006,0.26467183232307434,-0.7316385507583618,1.0265804529190063,0.5555234551429749,-1.5107694864273071,0.17339453101158142,2.0024361610412598,-0.837170422077179,0.30387139320373535,0.0664014145731926,0.8090280890464783,-0.4858379065990448,-0.053769148886203766,0.6648548245429993,0.06925004720687866,-1.099338412284851,0.5223930478096008,-0.6538076996803284,0.32212918996810913,-1.2849855422973633,-0.3347984552383423,-0.9376572966575623,1.8160161972045898,-0.16591383516788483,1.2371536493301392,0.7952136993408203,-0.11975502222776413,-0.12110228091478348,-0.0518801212310791,0.350856214761734,0.9095554947853088,-0.39261263608932495,0.26057127118110657,0.8631492257118225,0.8725366592407227,0.9976878762245178,0.08586453646421432
TC0050,-0.8061800599098206,-0.53296959400177,1.1913177967071533,-0.15662133693695068,0.6620620489120483,-0.15592055022716522,-0.8340810537338257,-0.5902922749519348,-0.2813071608543396,0.16645880043506622,-0.3407735228538513,-0.3635386824607849,-0.6516421437263489,0.18491530418395996,0.4429760277271271,1.2346893548965454,-0.26040562987327576,-0.5705833435058594,-1.7201528549194336,1.429291844367981,0.12652094662189484,0.5554293990135193,-0.7487196326255798,0.21892966330051422,-0.5167567729949951,0.2745482325553894,0.15087494254112244,-0.18441195785999298,-0.4361899197101593,0.7795528173446655,0.503605842590332,-0.7008707523345947,-0.5110382437705994,1.1971166133880615,-1.2371448278427124,-0.7999386787414551,1.0412355661392212,0.008801634423434734,-0.4550047218799591,0.4321743845939636,0.7069078087806702,2.626025915145874,-0.0809319019317627,0.3722356855869293,-0.20805242657661438,0.020672744140028954,-1.3085283041000366,0.06462781131267548,0.5626271367073059,0.38105401396751404,-0.25842875242233276,0.8396072387695312,0.6991162896156311,0.6481781601905823,0.3435651659965515,-0.6937428116798401,0.4827384352684021,0.9707833528518677,0.3560763895511627,1.1641864776611328,0.45638683438301086,0.31230628490448,1.1007890701293945,0.18936051428318024
TC0051,-1.2666515111923218,-0.6857396960258484,0.6746574640274048,-1.7145051956176758,-0.39129549264907837,-0.5296600461006165,-1.4887237548828125,0.15134349465370178,-1.2589330673217773,0.35937201976776123,0.6647006273269653,0.07752221077680588,-0.468075692653656,-0.6082772612571716,1.5437602996826172,0.7366421818733215,0.2994881272315979,-0.9544126987457275,-1.017634391784668,1.484459638595581,-0.08379530161619186,0.6776297688484192,-1.3242019414901733,0.2829228341579437,-0.6699599623680115,-0.8236751556396484,-0.9742757081985474,-0.2576861083507538,-1.4100719690322876,-1.4026939868927002,1.3716775178909302,1.162509560585022,0.9579214453697205,-0.7098315358161926,-0.5566622614860535,-0.09448587894439697,0.3998219668865204,1.5817641019821167,0.20080362260341644,0.0831260159611702,-0.5031258463859558,0.4899221658706665,1.0622735023498535,-0.6903545260429382,-0.9442808032035828,-0.07780721038579941,-0.9014583230018616,0.07127831876277924,-1.0057471990585327,-0.6170178055763245,0.42764967679977417,0.8666202425956726,-0.14751999080181122,1.065221905708313,-0.6041728854179382,-0.6961780786514282,0.688237726688385,0.4021061658859253,1.6070138216018677,-0.9460114240646362,-1.051121711730957,-0.8156034350395203,0.31254255771636963,0.8104037642478943
TC0052,-0.476235955953598,0.21808850765228271,0.7366886734962463,-0.35454073548316956,0.16929981112480164,0.13669615983963013,-0.5538759231567383,0.46385735273361206,-0.5912859439849854,0.979692816734314,-0.10113408416509628,0.2212515026330948,-0.7734595537185669,0.053932663053274155,0.7781453728675842,1.27255380153656,0.17267122864723206,-0.3327818214893341,-0.7680891752243042,1.0680681467056274,0.59754478931427,1.3065288066864014,-0.5051910281181335,-0.347035676240921,0.09332285076379776,0.41647952795028687,0.7123880386352539,-0.7121046781539917,-0.8051044344902039,0.3252905011177063,0.4868473708629608,-0.38336437940597534,-0.30745381116867065,1.0584803819656372,-1.0967069864273071,-0.24139243364334106,0.7004635334014893,0.46119916439056396,-0.1347399801015854,-0.15363644063472748,0.461289644241333,-0.02127019874751568,-1.2296217679977417,0.8734740018844604,-0.22337906062602997,0.31810659170150757,-1.5647222995758057,0.7176176905632019,-0.6613460183143616,0.498342365026474,-0.2115950584411621,0.2043430060148239,0.7479348182678223,0.8442906737327576,-0.4362071454524994,0.09998586028814316,0.6236931085586548,0.9148760437965393,0.16526682674884796,-0.5024967193603516,0.4587174952030182,0.5532500743865967,0.7287335991859436,-0.3161943554878235
TC0053,-0.6156212091445923,1.4146479368209839,-0.1647464781999588,-0.4413506090641022,0.8053737878799438,-0.9480334520339966,-1.1541227102279663,0.35404491424560547,0.144245445728302,0.6939942240715027,-0.677534282207489,-1.6509407758712769,0.8997703194618225,-1.1124529838562012,1.1371005773544312,0.9753360748291016,-0.1290452629327774,-0.011382687836885452,0.24333180487155914,0.34415403008461,-0.08807177096605301,1.1595019102096558,-0.40643537044525146,0.6474097371101379,0.6840378046035767,0.12723973393440247,1.000308632850647,0.24090461432933807,-0.5264164209365845,0.33029434084892273,0.03850087150931358,0.8980987071990967,-1.3287630081176758,-0.15981972217559814,-0.2834070324897766,-0.6073052287101746,0.3966512978076935,1.9383141994476318,0.5005549192428589,-0.1364808827638626,-0.47569775581359863,-0.10060422867536545,0.752295732498169,0.7166273593902588,-1.0853618383407593,-1.1337146759033203,-1.5873656272888184,0.25871920585632324,-0.4697505533695221,-0.45294663310050964,0.13850638270378113,0.4327029883861542,-0.8565212488174438,1.0574325323104858,-0.1682807207107544,0.20783217251300812,0.5898469090461731,-0.1544666737318039,1.1878864765167236,0.37295857071876526,-0.3637099266052246,0.527006983757019,-0.5513694286346436,0.09146418422460556
TC0054,-0.7706758379936218,0.2519032061100006,0.016226787120103836,0.6553317904472351,-0.14925163984298706,-0.5241085290908813,-2.6083765029907227,0.49196913838386536,-1.9280976057052612,0.3407236337661743,-1.0990980863571167,-1.2549794912338257,1.1725832223892212,0.07570698112249374,-0.38883283734321594,-0.806850790977478,0.014076493680477142,0.517105221748352,-1.543986439704895,-0.40589916706085205,0.5728761553764343,-0.4570149779319763,-1.2281734943389893,2.5061848163604736,0.08961267024278641,-1.0942896604537964,0.5643478631973267,-1.1266762018203735,-0.5542411804199219,-1.5672576427459717,1.3032617568969727,2.684166193008423,0.3759637475013733,-0.7348418235778809,0.19545787572860718,-0.8051558136940002,1.9842876195907593,2.9419949054718018,-2.2064015865325928,1.5547837018966675,-1.6657428741455078,-1.3339742422103882,-0.6475353240966797,-0.5759198665618896,-0.2279316931962967,0.2277936488389969,-2.584118604660034,1.2322986125946045,-0.6437361836433411,1.0445480346679688,-2.0145115852355957,2.102550506591797,-1.1694382429122925,1.6936806440353394,0.8489158153533936,0.17761221528053284,0.2803356647491455,-2.675384759902954,2.375102996826172,1.2988853454589844,-1.2035000324249268,-0.21146680414676666,-0.0001677643449511379,0.930467426776886
TC0055,-0.05626928061246872,0.13869930803775787,0.03676938638091087,-0.6771148443222046,-0.2904994785785675,0.7904722690582275,0.4446970522403717,-0.2730115056037903,-0.125513955950737,0.8985270857810974,0.46065208315849304,-1.2130848169326782,-0.5380162596702576,0.12353087216615677,1.6171233654022217,0.37541380524635315,-1.4755512475967407,0.9716100692749023,0.1520475298166275,1.3887465000152588,0.06383092701435089,0.521140456199646,0.3624924123287201,1.495898723602295,-0.8887333869934082,-0.16935588419437408,0.8705040216445923,0.7767929434776306,-1.823676347732544,-0.39107683300971985,-0.20207853615283966,0.10599950700998306,0.49133265018463135,-0.008852189406752586,-1.1537647247314453,-2.9620773792266846,0.25891992449760437,0.055474791675806046,-0.874855637550354,-1.254155158996582,0.5539813041687012,0.39349693059921265,0.5694419741630554,0.950701117515564,-0.7952898740768433,-1.017018437385559,-0.33971869945526123,0.20469552278518677,0.05293002352118492,0.22647304832935333,-0.016401007771492004,2.845461130142212,0.16830535233020782,0.5001006126403809,0.3631770610809326,-0.35577571392059326,-1.0259038209915161,-1.3952728509902954,0.7144724726676941,0.6830973029136658,-0.1416182816028595,0.4032396674156189,0.5953222513198853,0.7042942047119141
TC0056,-1.8936105966567993,-0.08340632915496826,-0.21730007231235504,-1.0639721155166626,-0.4976191520690918,0.35298553109169006,-2.1088263988494873,-0.5581935048103333,-0.7202789187431335,0.7497011423110962,-0.8918613791465759,-0.9563779234886169,0.11772823333740234,-0.920974850654602,0.9809006452560425,0.2984420359134674,-0.764165461063385,0.5010351538658142,-1.4528357982635498,1.8306825160980225,0.4489768147468567,0.19728140532970428,-0.6904245018959045,0.22690628468990326,-0.5121992826461792,-1.0767191648483276,0.08018949627876282,-0.28667953610420227,-0.9843905568122864,0.3119201958179474,0.1288481056690216,-0.7057557702064514,-0.44573676586151123,0.24058164656162262,0.09743433445692062,-0.44056716561317444,0.8817151188850403,-0.17327295243740082,-0.17154033482074738,0.07754786312580109,1.4067156314849854,-0.365452378988266,0.062393490225076675,0.6539244055747986,-1.6673120260238647,1.8478894233703613,-2.11970853805542,-0.49120330810546875,-0.03379594162106514,0.6003841161727905,-0.12956085801124573,0.9386894702911377,-0.8982135057449341,-0.2825045585632324,0.2925430238246918,0.23005591332912445,0.22105716168880463,-0.36451494693756104,-1.042231798171997,0.1207035481929779,0.17078788578510284,-0.06305152922868729,1.5002262592315674,1.191320776939392
TC0057,-1.8304128646850586,-0.2279752492904663,0.3020797669887543,-0.9073189496994019,-0.19764253497123718,0.33725064992904663,-1.2788199186325073,-0.9798439145088196,0.07663645595312119,0.8376641869544983,-0.9184913039207458,0.13945496082305908,0.21118398010730743,-0.720940113067627,-0.06544173508882523,-0.003144186455756426,-0.36795833706855774,0.7399190664291382,-1.3181499242782593,0.987516462802887,-0.10275830328464508,0.35925406217575073,-0.33493080735206604,-0.4306134283542633,0.008869832381606102,-0.8559796810150146,-0.17942672967910767,0.23130571842193604,-0.9766942858695984,0.6612372994422913,0.6211068630218506,-0.6170628070831299,-0.994329571723938,-0.2878396213054657,0.21069979667663574,-0.2280128002166748,1.386048674583435,-0.2827882170677185,0.5336162447929382,-0.4554966390132904,1.1020904779434204,-1.3534669876098633,-0.6205800771713257,1.5485517978668213,-1.18574059009552,1.2171765565872192,-2.6963744163513184,0.13143379986286163,-0.13609923422336578,-0.5997096300125122,-0.5396765470504761,1.0588692426681519,-1.2523748874664307,0.9149905443191528,-0.8121708035469055,0.10658005625009537,-0.21713228523731232,0.44769108295440674,0.5054233074188232,0.7109400629997253,0.09825501590967178,0.3866710066795349,1.800889253616333,1.2609666585922241
TC0058,-2.1595802307128906,-0.7797139286994934,0.4782624840736389,-1.29824697971344,0.3522065281867981,-1.498049020767212,-0.15115295350551605,0.6209680438041687,0.795401394367218,0.06720762699842453,0.4420728087425232,-0.058249007910490036,1.9027680158615112,-1.1324048042297363,0.8407297134399414,0.5824745893478394,-1.5591968297958374,1.7223986387252808,0.6721277832984924,1.1620136499404907,0.12677234411239624,-0.21327006816864014,-1.1728206872940063,1.003016471862793,0.5261622667312622,-0.07003294676542282,2.4629523754119873,0.9728089570999146,-0.2360188066959381,-0.041874513030052185,0.14033351838588715,0.6950028538703918,-0.47424712777137756,0.7330658435821533,0.6008982062339783,0.9788592457771301,0.13507325947284698,-0.27255716919898987,-0.9442620277404785,-0.6292681694030762,0.32873231172561646,-0.3430083990097046,1.8098104000091553,0.6192547678947449,-1.2346370220184326,-1.1700894832611084,-1.5998648405075073,0.2808183431625366,-1.9174985885620117,-1.5147582292556763,0.6722080111503601,1.593846321105957,0.8757784366607666,0.6863563060760498,0.3319491446018219,0.44428274035453796,-1.0712971687316895,0.5177339911460876,-0.5707713961601257,0.019953394308686256,-0.6816655397415161,-0.15928275883197784,-0.9373522996902466,0.9118232727050781
TC0059,-0.6200506687164307,-0.6992738842964172,-0.0593414343893528,-0.8570249080657959,0.7302334904670715,-0.6548601388931274,0.18012036383152008,0.2805348038673401,0.7588256597518921,0.7394169569015503,0.8959208130836487,-1.492160439491272,0.15435227751731873,-0.6749188303947449,0.8922120332717896,1.2862837314605713,0.11530371010303497,0.7448131442070007,-0.5668085217475891,1.6156147718429565,-0.5826008319854736,0.9608812928199768,-1.04274582862854,0.6985050439834595,-0.40747541189193726,-1.8230501413345337,0.2154897004365921,0.21000443398952484,-0.918188750743866,-0.80539470911026,0.5604860782623291,-0.03503328189253807,-0.9815769791603088,-0.4650929272174835,-0.17714175581932068,-1.0392646789550781,0.23868347704410553,0.38522449135780334,0.24687029421329498,-1.4983196258544922,1.8161680698394775,0.6882997751235962,0.2279605269432068,-0.4347062110900879,-0.7764209508895874,1.0520570278167725,-1.7063376903533936,0.5228672623634338,-0.9316069483757019,0.11705002933740616,0.7516971826553345,1.0741347074508667,0.6751106381416321,0.11776333302259445,-0.2722477316856384,-0.3416333496570587,0.5571838021278381,0.295047402381897,0.7946082949638367,0.42253029346466064,0.03930682688951492,0.5118014812469482,0.031694695353507996,0.39349138736724854
TC0060,1.4406837224960327,-0.7287007570266724,0.7619884610176086,0.07042372971773148,0.7498865127563477,-0.580380916595459,-0.761658787727356,0.7010756731033325,0.04049365967512131,-0.9117605090141296,1.6623811721801758,0.049452684819698334,-1.1318989992141724,-0.5036075711250305,1.1503304243087769,0.8045258522033691,-0.6620128154754639,1.8366763591766357,-1.833421230316162,1.065146565437317,0.26398590207099915,-0.09672714024782181,0.8004621267318726,1.2262024879455566,0.37291401624679565,0.8687574863433838,2.6113364696502686,0.6293138265609741,-0.8936562538146973,-0.04175526648759842,-0.04876570776104927,-1.009855031967163,-0.2952254116535187,0.6816934943199158,0.4916500747203827,0.6358626484870911,-0.940702497959137,-0.05010721832513809,0.987923264503479,0.6207818984985352,0.5618095993995667,0.025198545306921005,0.6615578532218933,0.9610240459442139,-1.668515682220459,-0.31468838453292847,-1.738474726676941,0.12699566781520844,0.03916415199637413,-0.15882909297943115,0.10467908531427383,1.719765305519104,0.1134510338306427,0.9130106568336487,0.7015253305435181,0.22674602270126343,-0.6321719884872437,1.828144907951355,0.04594966396689415,-0.901589035987854,-0.7077541351318359,-0.24726982414722443,1.8595941066741943,0.49789053201675415
TC0061,-1.362834095954895,-0.10125144571065903,-0.5997194051742554,-0.43441593647003174,-0.27256444096565247,-0.708459198474884,-0.4507881999015808,0.36236053705215454,0.02860768884420395,0.3279428482055664,-0.9132833480834961,0.08377403020858765,-0.8478236794471741,0.11927928030490875,0.28092625737190247,-0.2721644937992096,-0.619312047958374,-0.2415013611316681,-1.893537998199463,0.5240411758422852,0.9970569014549255,0.07831791043281555,-1.6240888833999634,0.6664411425590515,-0.40938854217529297,0.49058371782302856,0.6888298988342285,-1.5680049657821655,-0.8449259996414185,0.5327703356742859,0.8282567858695984,-0.15741698443889618,-0.44578245282173157,1.249993920326233,-0.893832802772522,0.3422948122024536,0.9125557541847229,0.2220032960176468,-0.12132047861814499,-0.40874820947647095,0.12964694201946259,1.1779546737670898,0.5182967185974121,0.14050468802452087,-1.2644168138504028,0.4897204637527466,-1.4268814325332642,0.9413503408432007,0.6478201746940613,0.10915163159370422,-0.16976653039455414,0.6393388509750366,0.2857610583305359,0.6761244535446167,-0.28227585554122925,0.33310770988464355,-0.3165164291858673,0.23797903954982758,-0.10182464122772217,0.8654301762580872,0.5127121210098267,0.7002206444740295,1.1177881956100464,-0.47256818413734436
TC0062,-0.8725863099098206,0.6866564750671387,0.12054651975631714,-0.9866784811019897,0.03100929968059063,0.16674785315990448,-0.706683337688446,-0.382389634847641,-0.35572919249534607,0.027922406792640686,-0.9477523565292358,-0.09367001056671143,-1.0801873207092285,0.16234593093395233,0.4667988419532776,-0.49369996786117554,-0.6170693039894104,-0.01598488539457321,-1.4630885124206543,0.5310248136520386,0.9214180111885071,0.9347038269042969,-0.8506365418434143,-0.1398766040802002,-0.10785345733165741,-0.1621685028076172,0.9328529238700867,-0.7046149373054504,-0.9146596193313599,-0.0023711698595434427,0.3742885887622833,-0.831312358379364,-0.2518574893474579,1.3157676458358765,-0.6780523657798767,-0.9829328060150146,1.1695492267608643,-0.18195874989032745,-0.3746830224990845,0.2922239601612091,0.4401233494281769,0.41816747188568115,-0.18425561487674713,0.6617845892906189,-1.35076105594635,0.8418925404548645,-1.7869330644607544,0.2931997776031494,0.23331807553768158,0.191316619515419,0.5699137449264526,0.42150261998176575,0.23008212447166443,0.5872837901115417,-0.4972573220729828,-0.018989544361829758,0.23259633779525757,-0.19112356007099152,0.26575395464897156,-0.053947415202856064,0.634855329990387,0.7216969728469849,1.083565354347229,-0.22013603150844574
TC0063,-1.5489169359207153,1.0409733057022095,-0.31935548782348633,-0.20471517741680145,0.5931952595710754,-0.5039095878601074,0.02240237034857273,0.30303505063056946,0.4084436595439911,-0.2733794152736664,-0.6622717976570129,-0.09162970632314682,-0.43084460496902466,-0.05182119458913803,0.5051234364509583,1.059356689453125,-0.978512704372406,0.24969962239265442,-1.2550835609436035,0.5371681451797485,1.4068442583084106,0.4785897731781006,-1.1148545742034912,1.0072473287582397,-0.12241602689027786,-0.6006691455841064,0.7997894287109375,0.06579771637916565,-0.9555491805076599,-0.39085853099823,0.23485590517520905,-0.6595008373260498,-1.1417460441589355,0.3556339144706726,-0.3046431243419647,0.2687339782714844,0.7547849416732788,0.4977046251296997,1.382171869277954,0.16652581095695496,0.44253766536712646,1.0244512557983398,-0.677101194858551,0.04496839642524719,-0.5201221704483032,-0.10028011351823807,-0.9674824476242065,-0.061127327382564545,0.8287126421928406,-0.5032499432563782,-0.4623458981513977,0.2110576331615448,0.16458533704280853,-0.054868098348379135,0.13427476584911346,0.48522675037384033,-0.6057752370834351,0.3529551327228546,0.15510661900043488,0.580434262752533,-0.028825579211115837,0.9052885174751282,-0.05403892323374748,-0.9208298921585083
TC0064,-1.7007108926773071,0.8255218267440796,-0.3965987265110016,-1.348434329032898,0.3906240463256836,-0.456466943025589,-0.7407360672950745,-0.45483216643333435,0.5729579329490662,0.6937470436096191,-0.5813241600990295,-0.43610498309135437,-0.6996374130249023,-0.4075503349304199,0.8891854882240295,0.7821187973022461,-1.576077938079834,0.511975109577179,-1.7454811334609985,1.3376024961471558,-0.04086500406265259,0.2982095181941986,-0.7192376255989075,-0.03530515357851982,-0.18621304631233215,-0.39630287885665894,1.3289834260940552,-0.35177746415138245,-0.5875604152679443,-0.2743813991546631,-0.038436900824308395,-1.0790495872497559,-0.6621317267417908,0.4047744572162628,0.7035025954246521,-0.7482646107673645,1.0216120481491089,0.2899588644504547,0.6482399702072144,-0.7279230952262878,0.7364466786384583,0.7967444658279419,-0.6849207282066345,0.21270114183425903,-0.6486864686012268,-0.14352107048034668,-1.5881774425506592,0.338901549577713,-0.9200326800346375,-0.9708283543586731,1.3595548868179321,0.1929745227098465,0.38118627667427063,-0.31676754355430603,-0.3685833811759949,-0.4269016683101654,-0.9225010871887207,0.04550311714410782,-0.2514784038066864,-0.2153267115354538,0.08953510224819183,1.7593636512756348,0.4061852991580963,-1.0630983114242554
TC0065,-2.5394763946533203,0.258174866437912,0.5814254283905029,-1.9152859449386597,-0.7095235586166382,-1.3413798809051514,-1.38090980052948,-0.6225551962852478,1.1329700946807861,1.363553524017334,-0.4248594343662262,-0.103763647377491,0.057742323726415634,-0.8522597551345825,0.644826352596283,0.976197361946106,-1.7665534019470215,-0.6047658324241638,-1.4932706356048584,1.4853183031082153,-0.7908579707145691,0.31837767362594604,-0.6064683198928833,-0.38785237073898315,-1.036258578300476,0.23547899723052979,0.5996195077896118,-0.09807540476322174,-0.32747262716293335,0.2827065885066986,0.8482674360275269,-2.230029582977295,0.26508986949920654,0.5011253952980042,1.1552720069885254,-0.5792574286460876,0.04295798018574715,0.8074265122413635,-0.5078520774841309,-0.3922975957393646,1.5402206182479858,0.3883618414402008,-1.335429310798645,0.10284008085727692,-0.14566102623939514,0.7122049927711487,-2.0214321613311768,-0.15924689173698425,-0.31843599677085876,-1.1870770454406738,-0.02294474095106125,1.0622940063476562,0.12786585092544556,-1.8085464239120483,-1.1940863132476807,-0.5354372262954712,-2.056159496307373,0.7552735805511475,-0.1526123285293579,0.7655536532402039,-0.06067712977528572,1.5116487741470337,0.9176159501075745,-0.5451006889343262
TC0066,-0.6469714641571045,1.023162603378296,1.2380895614624023,0.3668607175350189,0.8891432881355286,0.4581418037414551,-0.42714622616767883,1.3319331407546997,-0.38703757524490356,-0.5093890428543091,-0.17096595466136932,-0.5344081521034241,-1.4318530559539795,-1.2812831401824951,0.12492112070322037,0.7989660501480103,0.2963305413722992,0.30182740092277527,0.8633891344070435,0.6828177571296692,0.3367886245250702,0.7557293176651001,0.3322024345397949,0.30362704396247864,-0.6783176064491272,-0.4486137628555298,1.0970056056976318,0.7285705208778381,-1.6274572610855103,0.7574093341827393,-0.57792729139328,-0.608271062374115,0.08088256418704987,0.2884480953216553,0.43199482560157776,-0.37375736236572266,0.2480379343032837,-0.25340670347213745,-0.17376168072223663,-0.7444481253623962,0.8624487519264221,0.4199772775173187,0.7377251386642456,-0.0008995344978757203,0.20810367166996002,0.6743333339691162,-0.504952609539032,-0.5148628950119019,-1.2699298858642578,-0.4802834391593933,-0.257939875125885,-0.02719307504594326,-0.18904511630535126,0.3033770024776459,-0.4236585199832916,1.1181752681732178,0.4021437168121338,0.6177663207054138,1.049340009689331,-0.9135987162590027,-0.69255131483078,0.4907732605934143,0.6733355522155762,-0.5225902795791626
TC0067,-0.3201408386230469,1.2939850091934204,1.0816576480865479,0.030523931607604027,-0.14714647829532623,0.04474090039730072,-0.9129326939582825,0.7873262763023376,-0.8954113721847534,-0.6771572828292847,-0.4958447515964508,-0.6999524235725403,-1.358089804649353,-0.695583701133728,0.30143052339553833,0.05390635132789612,-0.018923120573163033,-0.1727723926305771,0.3582836985588074,0.9337043762207031,0.548643946647644,0.6911805272102356,-0.38660928606987,0.19726623594760895,0.26325321197509766,-0.26178207993507385,1.581295132637024,0.3213278651237488,-1.5332071781158447,0.7048428654670715,-1.0235294103622437,-0.8751241564750671,-0.29599323868751526,0.9825025200843811,-0.004795149900019169,-0.8388869166374207,-0.08876818418502808,-0.13148117065429688,-0.041175082325935364,-0.491588294506073,1.1457574367523193,0.606298565864563,0.39559412002563477,0.694940447807312,-0.5180733799934387,1.078095555305481,-1.3513869047164917,0.5844810009002686,-1.301594853401184,-0.4204271733760834,0.29032084345817566,-0.2062757909297943,0.2390659749507904,0.5726585388183594,-0.828171968460083,1.0054253339767456,0.499416321516037,0.7221872806549072,0.47095948457717896,-0.8434062600135803,-0.4195093810558319,0.6196717023849487,0.8033227324485779,-0.728617250919342
TC0068,-0.24723227322101593,0.8541041016578674,0.46990537643432617,-0.08483288437128067,0.11593887209892273,-1.428024172782898,-1.0146788358688354,0.47892144322395325,-1.1728099584579468,0.7099039554595947,-1.1661444902420044,-0.4208618700504303,0.9582646489143372,-1.426401972770691,-0.6415247917175293,-0.30297476053237915,-1.1255320310592651,0.3725619316101074,-1.2992033958435059,0.3181295394897461,0.6971036195755005,0.5852612853050232,-0.5347665548324585,0.540602445602417,-0.9940010905265808,-0.6936219334602356,0.5067772269248962,0.8968890309333801,-0.8138302564620972,-0.4503136873245239,0.10966174304485321,0.327482134103775,0.8009885549545288,0.2009342461824417,-0.26376938819885254,-1.0612064599990845,-0.15097053349018097,-0.4323696494102478,-0.15669582784175873,0.42525506019592285,-1.1365889310836792,0.8705838918685913,1.0977293252944946,0.6525250673294067,-0.8307527303695679,0.3081042468547821,-1.2079168558120728,-0.4245748817920685,0.19030022621154785,0.24748536944389343,0.15904119610786438,0.17009691894054413,-0.14639505743980408,0.013209708966314793,-0.6636911630630493,1.0540461540222168,-1.128408670425415,0.802160382270813,1.3701856136322021,0.3324751555919647,-1.1846641302108765,0.5050460696220398,-0.13355521857738495,-0.5285153985023499
TC0069,0.6563571691513062,0.616611659526825,0.07717641443014145,-0.008522587828338146,-0.270390123128891,-1.4154623746871948,-1.065000295639038,0.18899929523468018,-1.4784984588623047,0.7499324083328247,-0.615835964679718,0.16198444366455078,1.6507139205932617,-1.3577698469161987,-0.4127967655658722,0.5793655514717102,-1.039160966873169,1.3775219917297363,-1.5330501794815063,0.969808042049408,1.6319890022277832,-0.3791321814060211,-0.878307580947876,0.5478609800338745,-0.14213548600673676,-0.9834636449813843,0.6590296030044556,0.3871174454689026,-0.3238857090473175,-0.35826846957206726,0.3798264265060425,0.19187504053115845,1.13548743724823,0.872270941734314,-0.26359421014785767,-0.19855456054210663,-1.3473470211029053,-0.0975244864821434,0.4371657967567444,-0.7383546233177185,-0.6324836015701294,-0.6549166440963745,0.9616169929504395,1.163352131843567,-0.31459689140319824,0.14291492104530334,-1.7362377643585205,-0.7170694470405579,-1.3200455904006958,-0.17182761430740356,0.12899433076381683,0.2256402224302292,-0.15547440946102142,0.9901944398880005,-0.31870514154434204,-0.17883194983005524,-1.480370283126831,0.5650456547737122,1.7550044059753418,-2.267685651779175,-1.205734133720398,1.0474913120269775,0.6123309135437012,-0.38546785712242126
TC0070,-1.3913525342941284,-0.3863833248615265,-0.5227504372596741,1.4856595993041992,0.48560962080955505,-0.2446030229330063,-1.61371910572052,-0.3088763654232025,1.436871886253357,-1.8039501905441284,0.08163410425186157,0.9769015312194824,-0.5347043871879578,-1.7570229768753052,-0.5733141899108887,-0.5901050567626953,-1.8613548278808594,1.071548342704773,-2.4090847969055176,-1.4764362573623657,0.16974392533302307,-0.9612043499946594,-0.7324397563934326,1.8695710897445679,0.5855969786643982,0.03721573203802109,0.09194757789373398,-0.5041738152503967,-0.37022286653518677,1.6849644184112549,-0.9388203024864197,-1.2371011972427368,0.8403197526931763,0.031975388526916504,-0.23406542837619781,-1.2487900257110596,2.033780097961426,0.5501363277435303,-2.013371706008911,-0.6074485778808594,-0.8744891285896301,-0.24567683041095734,-0.5801350474357605,0.7467845678329468,0.38622021675109863,-1.535559058189392,-1.7572460174560547,-0.18953970074653625,-0.29046282172203064,1.7842220067977905,1.1747539043426514,-0.9166592359542847,1.4490162134170532,0.44856253266334534,0.38209253549575806,-0.6057783365249634,-1.246341586112976,1.5378756523132324,2.080186367034912,0.4342416226863861,1.5296201705932617,0.824313759803772,0.3962925672531128,-1.9357508420944214
TC0071,-0.5845732092857361,-0.07337271422147751,0.10438183695077896,1.4843339920043945,1.0621613264083862,-0.6176154017448425,-1.8351799249649048,-0.8782492876052856,0.3594929873943329,-1.7522071599960327,-0.5308271646499634,0.7196051478385925,-0.6316611170768738,-0.9616991281509399,0.7353399991989136,-0.21974210441112518,-0.15215441584587097,0.04540247470140457,-1.3125741481781006,0.8924988508224487,-0.09522449970245361,0.5969337821006775,-1.1384860277175903,1.020490288734436,-0.656988263130188,0.3196967840194702,1.1269950866699219,0.2677365839481354,-1.121320366859436,1.076119303703308,-0.7251213788986206,-0.23374365270137787,-0.017363158985972404,0.8537439107894897,-0.07516557723283768,-0.6378612518310547,0.02667027898132801,0.7917824983596802,-1.026241660118103,0.004928699694573879,-0.14492309093475342,-0.9119613170623779,-0.28841185569763184,0.503373920917511,0.40085774660110474,-1.6835923194885254,-0.9551637172698975,-0.38240623474121094,-0.034592464566230774,1.3771189451217651,0.8914999961853027,0.5816736817359924,0.17920057475566864,0.9505177736282349,-0.5035144090652466,-0.4812729060649872,0.08077197521924973,-0.3089092969894409,0.8416717648506165,1.738404393196106,1.6611206531524658,-1.085342526435852,0.1135711595416069,-1.7802786827087402
TC0072,-0.004103473387658596,0.3837603032588959,-0.39811834692955017,1.292175531387329,1.17763352394104,-1.416739821434021,-2.682029962539673,-0.7206586003303528,-0.49286049604415894,-0.5837904214859009,-1.350771427154541,-0.4529385268688202,0.6503055095672607,-0.9058084487915039,0.9953654408454895,-1.3932849168777466,0.014832459390163422,-0.5269342064857483,-0.7721613049507141,1.6534113883972168,0.0798206552863121,0.6708200573921204,-0.6325600147247314,0.8893267512321472,-0.8263019919395447,-0.006082073785364628,1.9156259298324585,-0.6964883208274841,-2.044645309448242,1.2473870515823364,-0.4127585291862488,0.2540617287158966,0.027782689779996872,1.2313553094863892,0.2329488843679428,-0.6237592101097107,-0.047966957092285156,1.1129226684570312,-0.7372885346412659,0.4206964373588562,0.33352211117744446,-0.030206093564629555,-1.0247373580932617,0.3364204168319702,-0.1398385465145111,-1.7927964925765991,-0.8911505341529846,-0.9793551564216614,-0.23669657111167908,1.7656749486923218,0.7333105206489563,0.8558595776557922,0.14966967701911926,0.7052134871482849,-0.8801424503326416,0.1546972543001175,0.5021119117736816,-0.00044390876428224146,0.8898873329162598,1.867498755455017,1.3663538694381714,0.04601478949189186,0.6825230717658997,-1.4992854595184326
TC0073,-0.8450403809547424,-2.7828590869903564,1.2782561779022217,1.00615656375885,-0.25755688548088074,0.1601240634918213,-1.3359196186065674,2.5739827156066895,0.09903362393379211,-1.0767757892608643,1.5020040273666382,0.2627667784690857,-1.1106423139572144,0.14599208533763885,0.1807733029127121,0.2769114077091217,-1.7957260608673096,-0.7447318434715271,0.47648635506629944,-0.9723193645477295,1.0800875425338745,0.5167863368988037,-0.8103988766670227,1.194445252418518,-0.4252467155456543,0.6942837834358215,-1.0179355144500732,1.8503844738006592,-0.8340908885002136,0.6488069891929626,1.7794166803359985,0.32780128717422485,-0.9860266447067261,-0.034404996782541275,2.2899515628814697,-1.0178346633911133,0.7183285355567932,-1.1132334470748901,0.6954553127288818,0.08491998165845871,-0.6919230818748474,1.1538050174713135,0.7400830984115601,1.0691583156585693,-1.4610621929168701,-1.2409265041351318,-1.3715863227844238,0.07642590254545212,-0.04667627438902855,0.6284189224243164,-0.9621908068656921,2.6852920055389404,1.147564172744751,1.3927009105682373,0.6572772860527039,2.6534523963928223,-1.5934776067733765,1.2208640575408936,0.3823697566986084,0.04636033996939659,-1.9104536771774292,-0.390669047832489,-0.06404606252908707,-0.045556455850601196
TC0074,-0.3992294371128082,-0.5739871859550476,-0.5999078154563904,0.30253493785858154,-0.8806478977203369,0.21112440526485443,-1.2832772731781006,0.2830241620540619,0.31245648860931396,-0.02091212570667267,0.303877592086792,0.4879419803619385,-0.4298721253871918,-0.9058927297592163,-0.10820367187261581,-0.41895923018455505,0.8082597255706787,0.11671842634677887,-0.6509248614311218,0.7227780818939209,0.07449039816856384,1.0341472625732422,-1.1068987846374512,0.5819103121757507,1.276677131652832,-0.8920474648475647,0.6365879774093628,-1.5778948068618774,-0.051099009811878204,-0.3211420476436615,-0.13579684495925903,0.31558358669281006,-0.8740605711936951,0.6130248308181763,0.35431620478630066,-1.360560417175293,-0.167153462767601,0.6642277240753174,-0.2028171867132187,-0.9257473349571228,0.4193257689476013,0.9433994889259338,0.043655380606651306,0.9751577973365784,-1.0223546028137207,0.21260620653629303,-1.594913363456726,0.24753110110759735,0.450614333152771,0.23084653913974762,-1.5063323974609375,0.5132729411125183,-0.8892250657081604,0.5408631563186646,0.5121681690216064,-0.5304146409034729,0.21257340908050537,1.8799474239349365,0.14124135673046112,-0.0013726898469030857,1.0223450660705566,0.1937684416770935,0.9914572238922119,0.204532653093338
TC0075,0.16198162734508514,0.5556215047836304,-0.5077759623527527,0.12677693367004395,0.4337225556373596,-0.049930814653635025,-0.9862918257713318,0.5656657218933105,-0.51650470495224,-0.24002514779567719,0.1942945122718811,0.5677029490470886,-0.2859672009944916,-1.7801834344863892,1.053298830986023,-0.17386986315250397,-0.5040948390960693,-1.2565319538116455,-1.17362642288208,2.0878007411956787,0.2378421276807785,0.45181983709335327,-1.9624505043029785,1.6139699220657349,-0.1897486448287964,0.590713620185852,1.3632283210754395,1.0266025066375732,-0.7836915850639343,0.4697778522968292,0.5456961989402771,-0.577826201915741,0.2449779063463211,0.9681211113929749,-0.8822983503341675,0.19895842671394348,1.183348298072815,1.0944479703903198,0.9730468392372131,0.5817480683326721,0.954982340335846,1.0806338787078857,-1.0642338991165161,0.3626711070537567,-1.1303852796554565,1.0914207696914673,-0.43947649002075195,0.3532879054546356,-0.004608601797372103,-0.09497147053480148,0.24647314846515656,0.3838435113430023,0.8251351714134216,1.591622233390808,0.01921982876956463,0.15386712551116943,0.5168596506118774,2.082362651824951,0.6738867163658142,0.8359085321426392,-1.5938581228256226,0.24731414020061493,-0.23179036378860474,-0.39983537793159485
TC0076,-0.8877195119857788,-0.8065691590309143,0.09150145947933197,-0.7549178004264832,0.15566030144691467,0.8570960760116577,-0.7010849118232727,0.566785991191864,0.7140985727310181,0.2693255543708801,0.2618555426597595,-0.799445629119873,-1.1483726501464844,-0.5919020771980286,1.8026291131973267,0.31076881289482117,0.05082056671380997,-0.0013925913954153657,0.29511934518814087,0.2587703466415405,0.07880851626396179,1.1065995693206787,-0.6123037338256836,1.376483678817749,0.015323334373533726,-0.5366918444633484,0.8296560049057007,0.14197170734405518,-3.056474208831787,1.1206437349319458,-0.19681815803050995,-0.7220051288604736,0.01858561486005783,1.1287789344787598,0.6784842014312744,-1.694771647453308,0.8191918730735779,-0.5205286741256714,-0.2897588610649109,-0.7036491632461548,-0.15789251029491425,-0.5831655263900757,0.40235474705696106,1.3618731498718262,-1.4687187671661377,-1.2644636631011963,-1.253057837486267,-0.10669507086277008,0.12423279136419296,0.6919393539428711,0.5070850253105164,-0.016513215377926826,0.4060665965080261,-0.06205324828624725,-0.4411504864692688,-1.8853355646133423,0.15625916421413422,0.008095763623714447,0.3513297140598297,0.6885439157485962,0.1736089438199997,0.4965105354785919,-0.23830470442771912,-1.1543253660202026
TC0077,-0.36112865805625916,-0.0238750409334898,0.3457815647125244,0.24521838128566742,-1.0835503339767456,0.28018444776535034,0.27575209736824036,0.01038602739572525,0.4513644278049469,0.024517294019460678,0.2720155715942383,-0.44627511501312256,-1.1472522020339966,0.5185502767562866,0.6015694737434387,-0.22484737634658813,0.07793863862752914,0.4336184859275818,-0.16748757660388947,1.760977864265442,-0.3235394060611725,0.8412623405456543,-0.6591429114341736,0.051319584250450134,0.10333442687988281,1.2255324125289917,1.2676442861557007,-1.0372806787490845,-0.4124241769313812,0.5718962550163269,0.38328316807746887,-0.6958312392234802,0.2666557729244232,0.9180149435997009,-1.0586140155792236,0.2871084213256836,0.45004069805145264,-0.5247102379798889,-0.5084162354469299,-0.34361666440963745,0.9687486886978149,0.1385979950428009,-0.7113432884216309,0.11968297511339188,-0.3611646592617035,-0.17960171401500702,-1.4578877687454224,-0.2321881204843521,-0.6613399386405945,-0.023769453167915344,-0.3710179924964905,0.7011577486991882,0.07230807095766068,1.1949481964111328,-0.5536237359046936,0.7095140814781189,0.4771029055118561,1.3600044250488281,0.475202739238739,-1.1212728023529053,-0.6637712121009827,0.2917589545249939,0.8052272200584412,0.19371338188648224
